tree
version=v4
num_class=1
num_tree_per_iteration=1
label_index=0
max_feature_idx=40
objective=binary sigmoid:1
feature_names=cur_cyano_cells cur_water_temp cur_ph cur_dissolved_oxygen cur_transparency cur_turbidity cur_chlorophyll_a cyano_cells_lag1 cyano_cells_lag2 cyano_cells_lag3 cyano_cells_lag4 water_temp_lag1 water_temp_lag2 water_temp_lag3 water_temp_lag4 chlorophyll_a_lag1 chlorophyll_a_lag2 chlorophyll_a_lag3 chlorophyll_a_lag4 cyano_cells_rollmean3 cyano_cells_rollmax3 cyano_cells_rollstd3 cyano_cells_rollmean5 cyano_cells_rollmax5 cyano_cells_rollstd5 water_temp_rollmean3 water_temp_rollmax3 water_temp_rollstd3 water_temp_rollmean5 water_temp_rollmax5 water_temp_rollstd5 cyano_cells_delta1 water_temp_delta1 month weekofyear doy_sin doy_cos is_algae_season days_since_prev major_basin station_type
feature_infos=[0:1264052] [0:34.299999999999997] [0:75] [0:21.100000000000001] [0:13.5] [0:940] [0:265.10000000000002] [0:954667] [0:1264052] [0:1264052] [0:1264052] [0:34.299999999999997] [0:34.299999999999997] [0:34.299999999999997] [0:34.299999999999997] [0:265.10000000000002] [0:265.10000000000002] [0:265.10000000000002] [0:265.10000000000002] [0:556500] [0:1264052] [0:728248.85089942534] [0:556500] [0:1264052] [0:564552.63135264907] [0.80000000000000127:34.100000000000001] [1.1000000000000001:34.299999999999997] [0:13.08147545195113] [1.1199999999999999:34.100000000000001] [1.3:34.299999999999997] [0:11.072804522793673] [-782414:1028052] [-18.399999999999999:22.100000000000001] [1:12] [1:53] [-0.9999994220246925:0.99998555065071859] [-0.99997919295908233:0.9999907524084426] [0:1] [1:161] -1:1:3:2:0 -1:1:0
tree_sizes=3320 3389 3414 3378 3367 3399 3382 3391 3435 3393 3384 3417 3426 3386 3420 3448 3431 3421 3435 3442 3440 3425 3430 3426 3415 3427 3426 3447 3446 3425 3444 3458 3405 3459 3422 3459 3445 3452 3420 3421 3434 3472 3416 3471 3452 3456 3442 3441 3445 3462 3466 3458 3442 3445 3400 3452 3455 3462 3463 3426 3476 3456 3463 3462 3429 3436 3444 3462 3449 3467 3468 3452 3447 3464 3485 3461 3485 3485 3477 3468 3444 3452 3467 3465 3471

Tree=0
num_leaves=31
num_cat=3
split_feature=0 26 0 24 0 1 36 40 0 40 35 12 40 35 24 36 7 36 6 8 11 24 10 0 36 6 28 17 12 27
split_gain=75042.6 6415.98 4709.03 2006.84 1152.82 976.961 781.189 578.558 571.27 526.861 493.488 442.709 433.385 386.724 368.012 349.699 318.419 316.203 304.32 294.54 266.408 242.989 239.416 232.854 231.512 242.51 209.927 202.223 294.142 176.733
threshold=345.50000000000006 23.350000000000005 961.50000000000011 460.60302208452526 93.500000000000014 20.450000000000003 -0.67168186667784702 0 60.500000000000007 1 -0.65882179392489248 19.650000000000002 2 0.48314048284850658 786.5531761841487 -0.39036009226888674 940.50000000000011 -0.91249077947840473 40.250000000000007 780.50000000000011 23.050000000000004 285.9116996011291 60.500000000000007 2772.5000000000005 -0.9575230291762723 21.950000000000003 24.270833333333339 7.8500000000000005 25.450000000000003 2.4542480178933359
decision_type=10 10 10 8 10 8 2 1 8 1 2 10 1 2 10 2 10 2 10 8 8 10 10 10 2 10 10 10 8 8
left_child=1 4 5 8 11 7 17 16 18 15 27 26 20 14 -13 21 -2 22 -3 -17 -5 29 -6 -4 25 -12 -1 28 -10 -7
right_child=2 3 23 12 6 9 -8 -9 10 -11 24 13 -14 -15 -16 19 -18 -19 -20 -21 -22 -23 -24 -25 -26 -27 -28 -29 -30 -31
leaf_value=-2.2212296757840377 -2.1583796109701581 -2.1581981873202354 -1.736621979286491 -2.1884622977587678 -2.1884622977587678 -1.960325147344101 -2.1604689422944316 -1.8835957101791585 -2.1723460429898651 -1.7582005477815907 -2.148026419150173 -2.1887270624646487 -1.7868734478140216 -1.9357303627622939 -1.9410855941338478 -2.1151078132709489 -1.9052932995126899 -1.8815915907626921 -1.9400147202890186 -1.8895499953957651 -1.9082264136468732 -1.8047157947446593 -1.8928107808688861 -1.6973515099726986 -1.8388421991642681 -1.832097678486879 -1.8127345953208689 -2.2137944963767815 -1.8514327344606465 -1.8118627947552306
leaf_weight=1468.0482171177864 53.64458417147398 136.75625655055046 562.04038643091917 10.047004468739031 20.094008937478069 63.20577596873045 134.94323477894068 55.619942039251328 14.69617583602667 123.6604091450572 15.685799337923529 151.61995399743319 103.91046769917011 20.807869970798492 16.649646408855915 26.322968199849129 16.175450764596462 47.76093839854002 18.09671339392662 32.15117197483778 54.406108930706978 116.49337924271822 10.387182824313639 1149.5158261433244 47.053508877754211 9.912987180054186 3.1518478989601126 23.770308963954449 13.888233348727224 29.35625459253788
leaf_count=15757 516 1315 1203 102 204 386 1303 264 145 312 148 1540 315 118 96 233 83 225 104 156 282 390 51 1660 186 38 11 252 58 102
internal_value=-1.95746 -2.15639 -1.75018 -1.98646 -2.19704 -1.88248 -2.08759 -2.00391 -2.06852 -1.84355 -1.98901 -2.2111 -1.85005 -2.13908 -2.16422 -1.883 -2.09975 -1.96189 -2.1327 -1.99109 -1.95191 -1.85277 -2.08771 -1.71025 -1.90468 -2.02568 -2.22035 -2.10604 -2.01642 -1.91324
internal_weight=4549.87 2321.69 2228.19 448.224 1873.46 516.63 213.185 125.44 279.86 391.19 125.007 1660.28 168.364 189.077 168.27 267.53 69.82 78.2421 154.853 58.4741 64.4531 209.055 30.4812 1711.56 72.6523 25.5988 1471.2 52.3547 28.5844 92.562
internal_count=27555 22250 5305 2945 19305 2442 1783 863 2246 1579 827 17522 699 1754 1636 1267 599 480 1419 389 384 878 255 2863 372 186 15768 455 203 488
cat_boundaries=0 1 2 3
cat_threshold=2 2 2
is_linear=0
shrinkage=1


Tree=1
num_leaves=31
num_cat=2
split_feature=0 25 0 21 0 36 1 39 10 0 1 39 21 24 36 19 16 21 35 17 0 13 24 13 10 18 3 5 0 1
split_gain=40437.2 4422.57 1809.43 1026.81 971.684 828.451 519.77 397.987 323.309 301.587 289.906 280.756 276.549 249.175 393.961 231.896 215.919 208.536 202.8 190.116 171.189 167.259 158.087 137.452 136.785 127.946 143.151 119.596 147.622 118.99
threshold=255.50000000000003 22.866666666666671 875.50000000000011 508.07758585272848 72.500000000000014 -0.67168186667784702 20.450000000000003 0 985.50000000000011 42.500000000000007 18.550000000000004 1 647.97244919742252 931.98434883726486 -0.6652727025667432 2082.1666666666674 24.450000000000003 337.96695957112405 -0.8041866928211282 54.350000000000001 1543.0000000000002 15.550000000000002 192.36878628601639 22.050000000000004 3645.0000000000005 4.2500000000000009 7.0500000000000007 4.8500000000000005 83.500000000000014 21.750000000000004
decision_type=10 10 10 8 8 2 8 1 10 10 10 1 10 8 2 8 10 10 2 10 10 8 10 10 10 8 10 8 10 8
left_child=1 4 6 9 10 11 7 17 -7 24 -1 21 19 14 25 -9 -10 -2 22 -12 -4 -6 -16 -21 -3 26 -8 28 -5 -24
right_child=2 3 20 27 5 8 13 15 16 -11 12 -13 -14 -15 18 -17 -18 -19 -20 23 -22 -23 29 -25 -26 -27 -28 -29 -30 -31
leaf_value=-0.04942778522986746 0.12569119308058221 0.030958172615947452 0.27722965448100684 -0.0081027975746886631 0.0015854407114217818 -0.033036927528239099 0.23580554538393278 -0.036607398518487343 0.055713698016905649 0.15735409123242294 -0.016590626333640768 0.00017252910431702923 0.21804366626115335 0.28544840440944852 0.0051489356327122961 0.28346485287981199 0.37136908973018246 0.26039109983637676 -0.057026747913894109 0.046560102126971911 0.3124352561401964 0.24828806648374299 0.0016221213901090781 0.32180782203985087 0.29976024175981503 0.25985963416737023 -0.011543129061884486 0.27305746011332882 0.2572162156278443 0.2125098202709407
leaf_weight=1246.9282620847225 53.202341675758362 121.57588874548674 414.83435470610857 8.9783730730414408 7.5485002472996703 155.76573088765144 15.021862097084524 45.192679189145565 15.798745959997179 100.79758304357529 282.10018224269152 31.119230628013611 14.424407370388506 188.57089097797871 14.282687820494173 6.4689998626708975 8.2448119148612005 62.474511303007603 12.962276227772234 12.901779584586622 2059.9365051984787 76.479058057069778 7.547150991857051 6.9947104007005683 4.9244578629732123 215.04612543433905 9.5798250213265401 143.80563980340958 12.60041408985853 58.812317855656147
leaf_count=13967 352 1083 862 75 65 1642 53 454 137 579 2907 283 65 415 125 20 21 225 122 114 2265 289 65 24 9 626 77 370 40 253
internal_value=0.171331 0.00933988 0.28658 0.161801 -0.0228769 0.0603614 0.214927 0.138248 -0.00669568 0.0928334 -0.0385815 0.165075 0.00416089 0.239517 0.213527 0.00290858 0.163956 0.18265 0.126541 -0.00605489 0.306534 0.202077 0.156047 0.143325 0.0414222 0.247503 0.139489 0.256587 0.146824 0.188525
internal_weight=5414.92 2250.99 3163.93 392.682 1858.31 294.956 689.162 167.339 179.809 227.298 1563.35 115.147 316.421 521.823 333.252 51.6617 24.0436 115.677 93.6044 301.997 2474.77 84.0276 80.6422 19.8965 126.5 239.648 24.6017 165.384 21.5788 66.3595
internal_count=27584 21670 5914 2156 19514 2437 2787 1051 1800 1671 17077 637 3110 1736 1321 474 158 577 565 3045 3127 354 443 138 1092 756 130 485 115 318
cat_boundaries=0 1 2
cat_threshold=2 3
is_linear=0
shrinkage=0.05


Tree=2
num_leaves=31
num_cat=1
split_feature=20 31 7 31 28 36 36 24 23 31 36 36 40 12 35 31 8 6 36 15 36 23 13 30 8 9 32 29 5 7
split_gain=21997.2 3291.24 2725.6 1743.34 790.292 770.721 477.703 414.389 397.279 338.788 317.414 270.769 264.889 258 244.225 226.575 193.296 187.084 179.283 174.112 171.867 150.445 140.711 136.569 125.917 138.889 127.294 129.326 122.344 99.8976
threshold=175.50000000000003 151.50000000000003 509.50000000000006 250.50000000000003 18.545000000000005 -0.031174269516803289 -0.46800559042974538 14.758048671690576 1595.0000000000002 -249.49999999999997 -0.6652727025667432 -0.12545862287572049 0 18.250000000000004 0.74443451080969758 913.50000000000011 1081.0000000000002 15.450000000000001 -0.93543596745397617 5.2500000000000009 -0.89404254237865755 990.50000000000011 21.650000000000002 1.1895377253369097 985.50000000000011 676.50000000000011 -1.2499999999999998 18.650000000000002 7.3500000000000005 1009.5000000000001
decision_type=10 10 8 8 10 2 2 8 10 10 2 2 1 10 2 10 8 10 2 8 2 10 8 8 8 8 8 10 8 8
left_child=1 4 3 5 -1 12 7 17 9 10 18 -5 24 15 -14 -3 -7 -6 -4 -9 -21 -13 -19 -22 25 26 -2 -28 -29 -10
right_child=2 13 8 11 6 16 -8 19 29 -11 -12 21 14 -15 -16 -17 -18 22 -20 20 23 -23 -24 -25 -26 -27 27 28 -30 -31
leaf_value=-0.04390934598172952 -0.019230557663092923 0.011136138708575993 0.057646919382537624 0.21788701835312421 -0.029792055955353804 -0.026583438572857172 -0.039236082311831573 -0.0054474249553292439 0.20659821855977778 0.21475660955308476 0.039399352557203449 0.014661083871026673 0.21246386973941336 0.20278030814867717 -0.021398371382440745 0.21659464747088586 0.12515431711485872 -0.011622419937372785 0.23519396760247213 0.08760154950187421 0.0058713617790532831 0.16250019525580822 0.15942905914752681 0.24120103357013378 0.18281236313657642 -0.0390440180516285 0.019928333799940925 0.094604531726473193 0.20000365530815734 0.2397318366410835
leaf_weight=1241.6027458310127 23.468932442367077 38.569833241403103 18.967370927333832 434.32680613547564 83.996816284954548 166.36232132464647 134.23651199042797 17.218572318553925 250.33064205944538 322.69424007833004 63.84409736096859 24.245193280279636 92.292630754411221 182.48117510974407 12.699946351349352 20.577377483248711 24.018419377505779 19.830453582108021 56.788526929914951 42.668453618884087 6.8879222199320784 59.290452711284161 30.53801816701889 58.747959889471531 30.984277978539467 23.74435318261385 34.586274974048138 83.920758627355099 40.97616545855999 2492.9378689154983
leaf_count=14224 214 311 121 796 850 1747 1448 156 542 620 495 183 250 453 127 31 130 192 129 300 54 191 171 167 112 208 309 526 166 2590
internal_value=0.14369 0.00111617 0.206573 0.136695 -0.0243284 0.0732204 0.0373571 0.0769187 0.229482 0.186604 0.121527 0.202031 0.118033 0.173366 0.184176 0.0826154 -0.00744022 0.015895 0.190741 0.142241 0.165721 0.119592 0.0920848 0.216505 0.0888159 0.0747256 0.0894911 0.10549 0.129184 0.236708
internal_weight=6133.84 1877.36 4256.48 1050.92 1635.73 533.054 394.125 259.888 3205.56 462.294 139.6 517.862 342.673 241.628 104.993 59.1472 190.381 134.365 75.7559 125.523 108.304 83.5356 50.3685 65.6359 237.681 206.696 182.952 159.483 124.897 2743.27
internal_count=27813 18357 9456 4959 17562 3789 3338 1890 4497 1365 745 1170 1912 795 377 342 1877 1213 250 677 521 374 363 221 1535 1423 1215 1001 692 3132
cat_boundaries=0 1
cat_threshold=2
is_linear=0
shrinkage=0.05


Tree=3
num_leaves=31
num_cat=0
split_feature=0 11 0 36 24 22 22 36 0 32 10 18 16 13 16 31 9 5 11 35 36 35 11 14 14 18 26 22 24 36
split_gain=19604 1905.26 1790.43 775.776 484.772 419.518 254.699 321.54 221.027 202.443 198.147 158.44 181.351 157.5 131.712 120.1 124.749 120.77 119.496 116.296 115.494 114.568 112.475 105.561 103.44 100.755 94.3049 92.97 105.958 92.0345
threshold=110.50000000000001 21.050000000000004 551.50000000000011 -0.056951011027366626 318.86031423042203 459.90000000000003 738.10000000000014 -0.67168186667784702 998.50000000000011 -0.6999999999999994 1876.5000000000002 93.200000000000003 40.650000000000013 26.950000000000003 8.6500000000000004 -141.49999999999997 44.500000000000007 6.1500000000000012 6.0500000000000007 0.99966190462023474 -0.3744658827978154 0.44505654568748165 15.350000000000003 15.050000000000002 24.250000000000004 15.15 29.250000000000004 35.900000000000006 0.0010779566379748508 -0.41399101439218416
decision_type=8 10 10 2 8 10 10 2 10 10 10 10 10 8 10 8 8 8 10 2 2 2 10 8 8 8 10 8 8 2
left_child=1 10 3 6 9 19 7 14 29 -3 11 15 -13 21 23 16 17 -1 -7 -5 -6 -11 -12 -2 -16 -20 -9 28 -25 -4
right_child=2 4 8 5 20 18 -8 26 -10 13 22 12 -14 -15 24 -17 -18 -19 25 -21 -22 -23 -24 27 -26 -27 -28 -29 -30 -31
leaf_value=-0.0041425824220298387 -0.023878217949420438 -0.028662911993775821 0.18055530101463918 -0.039894594009469979 0.17239150769770684 -0.057928921127167479 0.18485787669009424 0.027880752594635568 0.1990811204372091 0.034567154061990492 -0.056259332636027573 0.24561703164127968 -0.055496726399493261 0.18803541846408423 0.18383387427876655 -0.047998795065892511 -0.043992501615153876 0.18592499687696235 0.06597048679543227 0.20560446652828773 0.078278037144369289 0.17062233417047423 0.19342640470275529 0.11550569017865511 0.059127007577054774 0.1618321504367434 0.18360045287212617 0.14467905969110012 -0.059463948860386528 0.14063209100741994
leaf_weight=17.053581580519676 13.178516782820223 79.849816843867302 426.83199916034937 110.59627252817154 120.68801476806402 10.428043879568575 243.58299940824509 92.927654065191746 3268.5298903137445 144.99254600703716 6.6416078060865429 10.142048902809622 9.863150626420973 23.324996784329414 176.20112589746714 1308.8607286587358 37.290374331176281 16.390125334262848 49.454047828912735 5.0439989417791358 44.661446370184422 17.321461275219917 14.055436901748179 25.215052783489227 18.361123539507389 61.494935274124146 10.858827628195284 122.03166892379522 13.172938182950018 218.13104295730591
leaf_count=173 115 785 771 1177 335 94 430 718 2745 1215 71 34 113 108 435 15577 403 105 308 27 237 79 69 122 90 214 35 393 103 707
internal_value=0.126155 -0.0123344 0.17884 0.117365 0.0797659 0.0389641 0.143334 0.121903 0.193803 0.0379097 -0.0402724 -0.0425435 0.0971591 0.0665449 0.143816 -0.0445693 0.0188903 0.0890059 0.103893 -0.0291864 0.146971 0.0490864 0.113303 0.112155 0.172065 0.119103 0.0441732 0.12333 0.0554644 0.167053
internal_weight=6717.18 1851.14 4866.04 952.547 430.838 237.017 715.53 471.947 3913.49 265.489 1420.3 1399.6 20.0052 185.639 368.16 1379.59 70.7341 33.4437 121.377 115.64 165.349 162.314 20.697 173.598 194.562 110.949 103.786 160.42 38.388 644.963
internal_count=27788 19304 8484 4261 2759 1820 2441 2011 4223 2187 16545 16405 147 1402 1258 16258 681 278 616 1204 572 1294 140 733 525 522 753 618 225 1478
is_linear=0
shrinkage=0.05


Tree=4
num_leaves=31
num_cat=3
split_feature=0 1 0 34 40 40 34 8 7 7 39 26 28 3 32 0 1 13 0 29 34 22 5 24 26 8 35 27 0 14
split_gain=15535 1554.24 1330.06 570.45 495.686 381.775 275.725 258.327 187.153 137.184 133.268 124.268 117.909 108.764 122.287 108.753 107.891 103.163 79.7375 107.834 79.6931 145.571 78.9637 78.3935 77.7386 85.6307 74.4742 72.8129 89.5435 150.383
threshold=110.50000000000001 21.250000000000004 903.50000000000011 19.500000000000004 0 1 39.500000000000007 975.50000000000011 863.50000000000011 189.50000000000003 2 8.0500000000000025 11.022500000000003 9.1500000000000004 1.1499999999999988 650.50000000000011 26.350000000000005 16.050000000000004 15.500000000000002 24.650000000000002 40.500000000000007 403.10000000000008 9.8500000000000032 4821.7309029298667 13.750000000000002 462.50000000000006 -0.17647087149565668 1.0016652800877963 198.50000000000003 22.250000000000004
decision_type=8 10 10 2 1 1 2 8 10 10 1 10 10 10 8 8 10 8 10 8 2 10 10 8 8 10 2 8 10 8
left_child=1 9 3 11 6 8 10 22 16 -1 15 -2 24 -7 -15 -5 23 26 19 -18 -6 -22 -8 -3 25 -13 -12 -19 29 -29
right_child=2 5 -4 4 20 13 7 -9 -10 -11 17 12 -14 14 -16 -17 18 27 -20 -21 21 -23 -24 -25 -26 -27 -28 28 -30 -31
leaf_value=-0.046904286835753733 -0.055659991089717691 -0.0043831134925231968 0.17009166327405179 -0.03341477705751493 0.16849019080013083 0.15321400973000321 -0.017248855685687594 0.13344839080941065 0.15637326386686909 0.020929120849083951 0.1494225593865329 0.012679376811079755 -0.057051788978161821 -0.03571761031816164 0.12312549597331704 0.12266679344821463 0.22062148063445722 0.14210982873910982 0.16264311027564646 -0.057149505839042991 -0.056681416909547672 0.1395907356013642 0.13735730084372133 0.15306735476482725 0.28776395741226141 0.1904572794708552 -0.057989702019531256 0.11965653099633806 0.11931301631226915 -0.042169605866386427
leaf_weight=1275.8393099978566 50.486578270792961 202.15753528475761 3723.5572846084833 33.580317325890064 451.49442470818758 112.27675177156925 99.069221585988998 49.617738619446754 26.14696354418993 79.158588655292988 6.3355750739574459 19.013097822666172 15.997278988361357 18.898892596364021 33.763489551842213 16.715902388095856 4.7661377042531994 279.20412930846214 19.833118014037609 13.090499714016913 10.384712584316729 104.62966296821833 9.0098342821001989 8.2272849231958372 5.0798904970288268 10.522046558558939 13.657426327466963 34.157313704490662 286.89747979491949 24.765027225017548
leaf_count=15755 575 1841 2999 247 637 326 879 159 64 691 29 164 156 151 165 59 22 750 74 122 107 302 46 27 9 30 122 133 831 184
internal_value=0.110551 -0.0164479 0.154 0.114597 0.122769 0.0652963 0.0986909 0.0389998 0.0291409 -0.0429415 0.112229 -0.000156994 0.0552081 0.125407 0.0661216 0.0153974 0.0157306 0.117716 0.093636 0.0169907 0.159025 0.121869 -0.00436037 0.00177413 0.107089 0.0760137 0.0077371 0.123117 0.107783 0.0516411
internal_weight=7038.33 1794.16 5244.17 1520.62 1419.52 439.161 853.01 157.697 274.222 1355 695.313 101.099 50.6123 164.939 52.6624 50.2962 248.075 645.017 37.6898 17.8566 566.509 115.014 108.079 210.385 34.615 29.5351 19.993 625.024 345.82 58.9223
internal_count=27656 19238 8418 5419 4485 2792 3439 1084 2150 16446 2355 934 359 642 316 306 2086 2049 218 144 1046 409 925 1868 203 194 151 1898 1148 317
cat_boundaries=0 1 2 3
cat_threshold=2 2 4
is_linear=0
shrinkage=0.05


Tree=5
num_leaves=31
num_cat=3
split_feature=19 1 20 36 31 40 31 31 1 1 10 40 24 30 19 27 10 40 31 31 1 23 36 34 25 20 36 2 32 4
split_gain=10254.4 1820.21 1160.53 890.315 404.525 298.951 296.684 262.965 175.91 167.467 140.528 119.216 109.945 106.963 101.147 97.5473 96.3054 88.6408 86.9536 80.5617 78.4217 78.022 142.274 98.099 75.5326 72.6936 92.7669 71.4125 70.0345 72.2366
threshold=70.833333333333357 20.450000000000003 1009.5000000000001 -0.031174269516803289 177.50000000000003 0 726.00000000000011 99.500000000000014 18.950000000000003 26.850000000000005 2063.5000000000005 1 409.60535888637384 2.3522329816580627 3071.5000000000005 1.3826270592466774 1280.5000000000002 2 521.50000000000011 365.50000000000006 13.050000000000002 125.50000000000001 -0.49812626372919411 32.500000000000007 9.7833333333333368 500.50000000000006 0.46611290379786346 8.5500000000000025 -1.0499999999999996 1.0500000000000003
decision_type=10 10 10 2 8 1 10 8 8 10 10 1 8 8 10 8 10 1 8 10 10 10 2 2 8 10 2 10 8 8
left_child=1 6 3 7 9 16 10 8 -2 11 21 12 -3 25 18 -13 27 19 24 -6 -18 -1 23 -23 -4 26 -7 -5 29 -10
right_child=2 4 14 5 17 13 -8 -9 28 -11 -12 15 -14 -15 -16 -17 20 -19 -20 -21 -22 22 -24 -25 -26 -27 -28 -29 -30 -31
leaf_value=-0.047612467538210197 -0.014459820143308728 -0.013163327257197511 0.018920863841460269 -0.035801419854388228 0.033702222114454172 0.15176409758940751 0.12523048822003785 0.13254419430203521 -0.022890008758924787 0.11873623971543297 0.2395177015040526 0.11303763816762408 0.15664064199969088 0.010648111384997751 0.15301097248186898 -0.0074187439136599422 0.17632947377479058 0.15114163828487404 0.1490083007395909 0.12078625057055326 -0.015945271053319249 0.028600047864116681 -0.037478763201059632 0.21706266598253798 0.12865851358802458 0.15521955176436103 -0.056064202769643204 0.091837926480639598 0.10388993317935635 0.086401844159618102
leaf_weight=1055.2226738780737 41.686851479113102 173.3468356654048 15.957260228693483 170.67379511892796 41.205890014767647 10.484747260808946 27.133925259113312 754.49287182092667 23.662163473665714 48.900621987879276 4.4175716117024413 48.484372772276402 10.087571069598196 30.613109387457371 2504.6589238643646 25.724734306335449 11.144818469882013 119.9502077922225 839.36528483778238 74.708390586078167 10.117340967059134 25.665307201445103 101.39657507836819 9.4461979269981367 904.4657826051116 50.223078548908234 11.005367830395697 11.710213854908941 306.3629661872983 41.875075452029705
leaf_count=13497 405 1690 89 1792 214 56 44 1228 170 190 15 244 30 215 1791 199 40 147 677 144 77 234 1246 22 1597 139 127 76 1163 207
internal_value=0.100915 -0.00445446 0.133337 0.0950916 0.071784 0.0191674 -0.0382589 0.11498 0.0829371 0.033908 -0.0419676 0.0178076 -0.00382533 0.0888899 0.146556 0.0712812 -0.0158662 0.12101 0.13737 0.0898291 0.0848379 -0.043011 -0.00744111 0.0793029 0.126756 0.12229 0.0453325 -0.0276062 0.0938544 0.0469421
internal_weight=7504.19 1765.69 5738.5 1474.05 542.409 305.972 1223.28 1168.08 413.587 306.544 1196.15 257.644 183.434 102.326 4264.45 74.2091 203.646 235.864 1759.79 115.914 21.2622 1191.73 136.508 35.1115 920.423 71.7132 21.4901 182.384 371.9 65.5372
internal_count=27765 17916 9849 5695 2858 2522 15058 3173 1945 2353 15014 2163 1720 537 4154 443 1985 505 2363 358 117 14999 1502 256 1686 322 183 1868 1540 377
cat_boundaries=0 1 2 3
cat_threshold=2 2 2
is_linear=0
shrinkage=0.05


Tree=6
num_leaves=31
num_cat=3
split_feature=0 1 0 36 23 40 39 31 29 13 35 31 11 34 6 8 2 3 11 3 40 8 5 15 17 0 17 14 24 34
split_gain=10129.6 1192.09 946.451 373.153 381.292 276.323 244.192 221.307 149.888 143.032 131.317 107.508 102.563 94.7563 90.092 85.1623 85.4766 85.4352 82.4646 80.5584 93.9416 77.373 77.0614 76.0947 101.354 75.6058 65.7729 64.164 63.3647 101.02
threshold=110.50000000000001 21.250000000000004 824.50000000000011 0.029024409397335523 1068.5000000000002 0 1 -184.49999999999997 24.650000000000002 15.850000000000003 0.98522604642031408 -6237.4999999999991 21.050000000000004 43.500000000000007 37.95000000000001 518.50000000000011 9.4500000000000011 7.8500000000000005 6.9500000000000011 8.5500000000000025 2 927.50000000000011 5.9500000000000011 3.2500000000000004 4.5500000000000007 1971.0000000000002 3.0500000000000003 21.450000000000003 1005.0034016174023 33.500000000000007
decision_type=8 10 10 2 10 1 1 8 8 8 2 10 10 2 10 8 10 10 10 8 1 10 10 8 10 10 8 8 10 2
left_child=1 7 3 6 22 12 9 13 14 10 -2 -10 -3 -1 23 16 -14 -17 -6 20 26 -9 -5 24 -8 -4 -11 -24 29 -13
right_child=2 5 25 4 18 -7 8 21 11 19 -12 28 15 -15 -16 17 -18 -19 -20 -21 -22 -23 27 -25 -26 -27 -28 -29 -30 -31
leaf_value=0.06917345501391968 -0.019792729228262713 -0.045789618762265623 0.12376267773826272 -0.03444784101000934 -0.029011773531522168 0.10296628840943052 -0.021131857363703356 -0.044477375369788331 -0.035781009591359263 -0.0086735957059708088 0.15167648695262106 0.10416304015132444 0.015811382691468652 -0.05601885746346208 0.12858507493719018 -0.0068316400757085366 0.23682224917596711 0.12880346405544993 0.097652784282080074 0.13942403300565404 0.13770624737278456 0.079610454260638674 0.15669202542500771 -0.039338695641244682 0.20871427967844045 0.13893593490602851 0.095743846527833867 -0.057347898311816518 0.13313449375712252 0.023728520708329918
leaf_weight=65.44628344476223 33.805422194302082 43.861336342990398 1085.430083334446 121.73736815899611 13.864777326583861 183.94972759485245 11.647862546145918 1192.0445688962936 17.914187468588352 16.100512623786926 16.672593712806702 108.25159186124802 185.14570041745901 19.6532943546772 13.356743246316908 16.167696624994278 4.4806919619441024 41.184758238494396 175.53542329370975 405.58491107076406 163.55767479538918 12.696148723363875 10.262300319969651 60.809241816401482 8.1538442447781545 3369.8520526140928 238.25876131653786 5.3147376105189332 65.308709762990475 61.050923831760883
leaf_count=431 270 483 1268 1304 99 626 90 15777 133 87 70 266 1458 216 23 100 14 125 529 594 158 75 53 431 18 2041 617 51 96 305
internal_value=0.0925794 -0.0127319 0.123539 0.0898478 0.0423884 0.0550034 0.102552 -0.0376652 0.0604761 0.117201 0.0368426 0.0822821 0.0246679 0.040261 0.00831141 0.0371806 0.0210337 0.0905678 0.0883805 0.12355 0.108144 -0.0431697 -0.0210492 -0.0116172 0.073513 0.135239 0.0891344 0.0836636 0.091297 0.0751581
internal_weight=7767.1 1764.63 6002.47 1547.19 326.715 474.79 1220.47 1289.84 346.493 873.98 50.478 252.525 290.84 85.0996 93.9677 246.979 189.626 57.3525 189.4 823.502 417.917 1204.74 137.314 80.6109 19.8017 4455.28 254.359 15.577 234.611 169.303
internal_count=27808 19305 8503 5194 2036 2806 3158 16499 1362 1796 340 800 2180 647 562 1697 1472 225 628 1456 862 15852 1408 539 108 3309 704 104 667 571
cat_boundaries=0 1 2 3
cat_threshold=2 3 2
is_linear=0
shrinkage=0.05


Tree=7
num_leaves=31
num_cat=4
split_feature=0 11 0 40 36 23 39 40 8 39 18 0 24 36 15 18 2 31 30 17 26 31 9 28 5 5 9 16 20 6
split_gain=8763.48 994.476 808.996 398.98 312.326 356.441 213.12 183.672 152.908 113.325 103.183 95.0104 83.8143 110.294 92.7788 74.6475 73.5812 72.6812 84.4467 71.3474 71.2276 71.141 80.3277 70.8479 68.716 66.9676 66.4141 64.0919 79.9149 59.609
threshold=100.50000000000001 18.550000000000004 693.50000000000011 0 -0.056951011027366626 980.50000000000011 1 2 518.50000000000011 3 12.850000000000003 1398.5000000000002 189.86536885708418 -0.46800559042974538 3.0500000000000003 35.050000000000004 9.4500000000000011 -11.499999999999998 1.7123083834403299 17.750000000000004 22.350000000000005 -184.49999999999997 1.0000000180025095e-35 23.390000000000004 2.6500000000000008 2.4500000000000006 90.500000000000014 33.050000000000004 510.50000000000006 7.1500000000000012
decision_type=8 10 10 1 2 10 1 1 8 1 10 10 10 2 10 10 10 10 10 10 10 8 8 10 10 8 8 10 10 10
left_child=1 21 4 8 7 27 -5 9 16 -2 -8 -4 13 14 -11 -7 17 18 -3 -20 -12 22 -1 24 -10 26 -14 -6 -29 -25
right_child=2 3 11 6 5 15 10 -9 23 12 20 -13 25 -15 -16 -17 -18 -19 19 -21 -22 -23 -24 29 -26 -27 -28 28 -30 -31
leaf_value=0.087344244833278961 -0.0089252338762741967 -0.023981787022995398 0.10812814054132597 -0.042598688628352394 -0.040316808142597284 0.061619266222086889 0.15800210466077555 0.11688868354385749 0.12998268824860834 -0.014871248839899907 0.018815127114022223 0.12570661065321989 0.088564889508838868 -0.040957895442484488 0.082944825219651713 0.13478813713652962 0.16559226308289562 -0.029614124855160587 0.026480526516623373 0.15199856071033335 0.10163025104165307 -0.0470255009167398 -0.040784284779304403 0.025103021467105253 -0.057936379911513042 0.10266992525115455 -0.063657552000492862 -0.055949960424334137 0.19081193397469232 0.14665157095439774
leaf_weight=21.388147585093975 44.096534423530102 52.457751490175724 959.17518056929111 28.28340045362711 115.86871871352196 148.52796796709299 64.751357637345791 439.58162799477577 7.0223203971982029 27.988139696419239 34.056293517351151 3870.5939430445433 16.856527805328373 25.157647624611855 181.11626021564007 45.547590114176273 5.8578615710139266 219.07941266894341 36.325974218547344 16.447747111320496 109.26650093495846 1032.1459857672453 28.575602263212204 14.889748327434061 15.832949161529539 333.96029655635357 12.463446281850336 6.1353439912199956 7.0526234209537506 31.270058274269104
leaf_count=152 290 471 1347 267 1321 557 131 641 38 175 259 2385 44 208 600 79 20 2396 278 55 286 14297 300 73 147 736 82 68 27 74
internal_value=0.0849509 -0.0150483 0.112503 0.0345953 0.0791005 0.0359681 0.0860797 0.091991 0.0041113 0.0749337 0.100775 0.122216 0.0799339 0.0579523 0.0698524 0.0787913 -0.010037 -0.0132093 0.0209437 0.0656002 0.0819518 -0.0442048 0.0140641 0.0717967 -0.000197927 0.0963091 0.0238576 -0.0284294 0.0760127 0.107444
internal_weight=7951.77 1717.65 6234.12 635.541 1404.35 323.132 236.358 1081.22 399.184 641.639 208.074 4829.77 597.542 234.262 209.104 194.076 330.169 324.311 105.231 52.7737 143.323 1082.11 49.9637 69.0151 22.8553 363.28 29.32 129.057 13.188 46.1598
internal_count=27804 19244 8560 4495 4828 2052 943 2776 3552 2135 676 3732 1845 983 775 636 3220 3200 804 333 545 14749 452 332 185 862 126 1416 95 147
cat_boundaries=0 1 2 3 4
cat_threshold=2 8 2 4
is_linear=0
shrinkage=0.05


Tree=8
num_leaves=31
num_cat=1
split_feature=23 1 20 36 31 31 31 17 7 36 7 6 36 39 11 28 31 4 9 8 23 32 23 6 36 4 7 30 36 31
split_gain=5759.78 1086.79 965.563 836.162 259.562 212.023 188.244 179.883 139.101 133.064 128.113 122.383 103.18 95.5869 132.893 84.9306 82.4682 78.5446 77.4275 73.8711 76.6148 71.8502 100.147 70.8635 70.5214 75.2183 65.4476 65.4362 58.1779 101.455
threshold=160.50000000000003 18.350000000000005 1009.5000000000001 -0.031174269516803289 25.500000000000004 1025.0000000000002 376.50000000000006 54.350000000000001 584.50000000000011 -0.77243990499604276 1480.5000000000002 11.450000000000001 -0.97874870457683594 0 24.450000000000003 26.045000000000005 250.50000000000003 0.8500000000000002 293.50000000000006 24.500000000000004 560.50000000000011 -2.7999999999999989 812.50000000000011 51.650000000000013 0.25829915227078726 1.7500000000000002 28.500000000000004 1.1987493482792468 0.089118976521498999 338.50000000000006
decision_type=10 10 8 2 8 8 10 8 10 2 8 8 2 1 10 10 10 10 8 8 10 8 10 10 2 10 10 8 2 10
left_child=1 6 3 5 7 9 -1 15 21 11 16 12 -2 -6 -15 -3 -4 -9 19 20 -11 22 -5 -20 -10 -26 -14 -21 29 -23
right_child=2 4 10 8 13 -7 -8 17 24 18 -12 -13 26 14 -16 -17 -18 -19 23 27 -22 28 -24 -25 25 -27 -28 -29 -30 -31
leaf_value=-0.047339001410473508 -0.0045307926899924951 -0.013763496604092654 0.082030313018391032 -0.054920669743036422 0.099252793173763787 0.11328021460266904 0.083929312784450275 0.11862767089260458 -0.06353525030822503 -0.03456863483954619 0.11559765583411652 0.10699575973412115 0.0082537614445980494 -0.022520498297878288 0.089271220494848535 0.12254682428450457 0.1084680476358672 -0.05740213115301851 0.0055025128459311456 0.015876751896953673 0.083154259748004278 -0.032266974909480377 0.15033139945505578 0.14204611041823573 0.11401464063578776 -0.024567772528937982 0.087998624451815777 0.092710378776009447 -0.032073991589949703 0.15571230740773356
leaf_weight=888.7520150244236 48.9936308786273 231.4754379093647 531.78053840249777 10.103910654783251 180.70217105001211 448.47850073873997 28.177154660224915 45.969334349036217 9.3731125071644765 33.141816198825836 3594.3330311849713 324.70960719138384 30.176932476460934 54.310176767408848 52.073293380439281 12.02081874758005 662.38314034044743 7.3502527847886077 116.40974711626768 33.53416883200407 23.706941053271294 18.210457265377048 14.431276760995386 10.346669457852839 45.611984044313431 12.467933006584643 174.57298588007689 159.58721394836903 233.62861662358046 11.847697220742701
leaf_count=12705 257 2549 1204 132 361 385 75 172 68 269 2388 622 176 396 120 51 570 73 601 197 94 185 56 16 115 98 441 552 2652 18
internal_value=0.0789953 -0.00935212 0.0992454 0.0675689 0.043966 0.0849205 -0.0433051 0.0111804 -0.000908145 0.0716049 0.110884 0.0866653 0.0606489 0.0778627 0.0294333 -0.00703419 0.0966949 0.0943615 0.04848 0.0646216 0.0145239 -0.0160349 0.0658059 0.0166481 0.0637273 0.0842654 0.0762455 0.0793688 -0.0236499 0.0418268
internal_weight=8048.66 1500.83 6547.83 1759.33 583.901 1403.66 916.929 296.816 355.675 955.18 4788.5 578.453 253.744 287.086 106.383 243.496 1194.16 53.3196 376.727 249.97 56.8488 288.222 24.5352 126.756 67.453 58.0799 204.75 193.121 263.687 30.0582
internal_count=27598 16502 11096 6934 3722 3610 12780 2845 3324 3225 4162 1496 874 877 516 2600 1774 245 1729 1112 363 3043 188 617 281 213 617 749 2855 203
cat_boundaries=0 1
cat_threshold=3
is_linear=0
shrinkage=0.05


Tree=9
num_leaves=31
num_cat=3
split_feature=0 1 0 39 26 40 34 24 0 1 40 24 7 24 5 7 13 0 13 1 2 15 1 35 13 2 4 24 17 15
split_gain=6469.56 846.331 697.345 341.191 325.816 197.039 140.293 136.038 130.532 127.181 100.081 85.0806 80.5182 91.4949 69.0841 73.9725 98.037 68.9142 70.6017 60.4558 77.181 57.2801 55.7453 95.0053 93.9504 73.4096 58.9053 55.5734 55.2078 53.3666
threshold=99.500000000000014 21.250000000000004 961.50000000000011 0 24.650000000000002 1 13.500000000000002 845.72364724790407 133.50000000000003 19.150000000000002 2 3528.0646331644552 245.50000000000003 130.82335390155168 13.550000000000002 80.500000000000014 21.650000000000002 250.50000000000003 26.150000000000002 21.950000000000003 7.9500000000000011 6.2500000000000009 18.550000000000004 0.69056404122701587 15.550000000000002 7.9500000000000011 0.8500000000000002 1005.0034016174023 48.050000000000004 2.4500000000000006
decision_type=8 10 10 1 8 1 2 10 10 10 1 8 10 8 8 8 10 8 8 10 10 10 10 2 10 10 10 10 8 10
left_child=1 7 3 6 9 11 -2 12 -6 28 17 29 22 -14 15 -11 21 18 19 20 -8 -17 -1 -24 -25 -26 -27 -9 -5 -3
right_child=2 5 -4 4 8 -7 10 27 -10 14 -12 -13 13 -15 -16 16 -18 -19 -20 -21 -22 -23 23 24 25 26 -28 -29 -30 -31
leaf_value=-0.048998550682252694 -0.01613325564742615 -0.056295360267615273 0.10739839272852883 -0.053909363362956299 -0.012006901704725983 0.078618613354921721 -0.058872354322531018 0.12782908140035426 0.079687927675277923 -0.050520678231788213 0.10437227474656748 0.10851724899687482 0.15035893449009327 -0.014294146817165052 0.088875983531653546 0.11105462826451123 -0.020446063401325397 0.08443270696013612 -0.063162667321501026 0.086647881091072187 0.081948563447149528 0.010159612886202929 -0.035881672692345594 -0.054480135892981875 0.0051893221247663879 0.32126247117480383 0.096054749541372511 0.010264015165073477 0.046201604007065467 0.014171901101327209
leaf_weight=910.88822897523642 31.351758874952793 30.456717103719711 4499.4249404370785 95.641907423734665 43.066640868782997 202.42697556316853 20.710470661520958 13.840511821210383 392.86276872456074 35.121349588036537 659.63272894173861 21.896762743592262 10.614446371793745 41.132226593792439 37.375008709728718 39.256353348493576 48.201648846268654 481.92222114652395 14.157696612179278 62.224405162036419 18.35221291333437 21.922932542860508 116.99922098219395 10.536430425941946 7.0684122592210796 5.853599585592745 5.7613004073500633 36.722139567136765 16.087826609611511 228.01954824477434
leaf_count=13774 317 325 2822 918 324 610 195 51 848 237 902 40 63 375 65 90 265 1058 102 159 88 88 1493 142 69 31 48 251 97 1729
internal_value=0.0740966 -0.0145973 0.0964455 0.072023 0.0426224 0.0410265 0.0876601 -0.03776 0.0706291 0.00249132 0.0909462 0.0138853 -0.0414173 0.01948 0.0282838 0.0126118 0.0328832 0.0761208 0.0414227 0.0560415 0.00728735 0.0749 -0.0443983 -0.0157403 0.064908 0.132237 0.209553 0.0424451 -0.0394945 0.00586862
internal_weight=8159.53 1642.22 6517.31 2017.89 729.536 482.8 1288.35 1159.42 435.929 293.607 1257 280.373 1108.85 51.7467 181.877 144.502 109.381 597.367 115.445 101.287 39.0627 61.1793 1057.11 146.219 29.2197 18.6833 11.6149 50.5627 111.73 258.476
internal_count=27576 19001 8575 5753 2932 2704 2821 16297 1172 1760 2504 2094 15995 438 745 680 443 1602 544 442 283 178 15557 1783 290 148 79 302 1015 2054
cat_boundaries=0 1 2 3
cat_threshold=2 2 2
is_linear=0
shrinkage=0.05


Tree=10
num_leaves=31
num_cat=5
split_feature=0 11 0 36 24 21 16 40 39 18 35 40 35 12 29 32 17 8 28 11 12 26 39 27 0 18 32 3 30 40
split_gain=5617.2 732.755 724.829 273.318 315.639 233.074 129.46 125.36 131.347 123.333 112.462 93.9259 80.6634 114.697 74.3849 69.1451 87.462 82.8014 79.0237 75.7212 108.587 68.9416 68.8429 74.6446 72.4697 67.9008 67.8044 70.7922 65.3385 64.0966
threshold=96.500000000000014 18.050000000000004 975.50000000000011 -0.39036009226888674 339.89616064460523 691.57906689621666 27.050000000000004 0 1 20.150000000000002 0.74443451080969758 2 0.71503381463111937 17.850000000000005 24.150000000000002 -0.84999999999999953 10.250000000000002 750.50000000000011 16.210000000000004 21.050000000000004 21.150000000000002 27.050000000000004 3 1.0214368964029601 524.50000000000011 46.850000000000001 4.1500000000000021 8.7500000000000018 1.8286606916645691 4
decision_type=8 10 10 2 10 8 10 1 1 10 2 1 2 10 10 10 10 10 10 10 10 10 1 10 8 10 10 10 10 1
left_child=1 14 3 10 6 7 -5 12 -9 -10 11 22 15 -14 -1 -3 17 -17 -18 -20 28 -22 23 -2 -25 -16 27 -11 -21 -6
right_child=2 5 -4 4 29 -7 -8 8 9 26 -12 -13 13 -15 25 16 18 -19 19 20 21 -23 -24 24 -26 -27 -28 -29 -30 -31
leaf_value=-0.045138150502473579 -0.063901415891329028 -0.043873419707437397 0.10096150959117323 -0.028602286755331642 0.043743242311726167 0.081302769354518384 0.067576564299267464 -0.043304878939668022 0.12452279538805081 0.057004558594490731 -0.059670118099830673 0.09733268508968293 -0.054290997408701136 0.30431044346840141 -0.019941580535770543 -0.026213117432721519 0.25189537103882026 0.16543403371758783 -0.054847851631486144 0.22590147058644083 -0.028771329724643357 0.098627734499855083 0.073157077435019022 -0.028697229259025844 0.13271724178001928 0.17466977941450096 0.14848887625657828 -0.046398043823027688 0.04522551592574553 0.079896732758372127
leaf_weight=910.00215854123235 22.097612306475639 107.19210901111364 4624.3889872282743 176.09611300379038 235.08906471729279 146.21937849745154 43.663018397986889 30.245527166873217 57.777794033288956 36.036867171525955 14.581836715340613 494.90987544506788 4.089304678142069 4.903682641685009 11.637832000851633 146.66442792862654 4.3150411471724501 5.8612611964344969 19.240145415067673 12.358607709407808 30.623932033777237 16.256083309650421 825.01710107177496 12.799370102584364 15.225124523043631 7.2894490361213675 10.1068197786808 30.614132575690746 8.4083924442529661 256.19991318881512
leaf_count=13965 155 1223 2841 1684 804 301 223 294 170 157 124 518 58 27 109 1561 36 20 248 38 272 59 1827 78 30 14 13 246 60 456
internal_value=0.0698613 -0.01434 0.0899071 0.065514 0.0403165 0.025477 -0.00949291 0.00991976 0.0460393 0.0645463 0.0784537 0.0799238 -0.00661706 0.141247 -0.0430976 -0.0104063 0.00431255 -0.0188485 0.0430469 0.0326749 0.0575681 0.0154055 0.0700788 0.00401286 0.0589959 0.0550089 0.0278093 0.00950968 0.152747 0.0625968
internal_weight=8319.91 1599.84 6720.07 2095.68 711.048 670.914 219.759 524.694 164.781 134.536 1384.63 1370.05 359.913 8.99299 928.929 350.92 243.728 152.526 91.2022 86.8872 67.647 46.88 875.139 50.1221 28.0245 18.9273 76.7578 66.651 20.767 491.289
internal_count=27611 18871 8740 5899 3167 4783 1907 4482 880 586 2732 2608 3602 85 14088 3517 2294 1581 713 677 429 331 2090 263 108 123 416 403 98 1260
cat_boundaries=0 1 2 3 4 5
cat_threshold=2 8 2 4 2
is_linear=0
shrinkage=0.05


Tree=11
num_leaves=31
num_cat=2
split_feature=0 0 1 34 39 1 5 26 31 11 1 19 30 19 14 0 40 0 11 5 35 16 31 24 16 17 15 22 32 1
split_gain=4851.58 685.244 599.898 267.85 219.961 262.609 121.413 106.698 95.0992 84.9452 65.7293 84.0994 67.3552 62.661 60.5243 72.0417 60.2852 74.4973 70.7057 59.8138 59.5124 59.1015 58.6935 57.1253 74.7811 56.5379 63.3676 54.915 66.9093 54.3001
threshold=44.500000000000007 961.50000000000011 21.250000000000004 13.500000000000002 0 19.050000000000004 5.3500000000000005 24.650000000000002 -269.49999999999994 8.4500000000000011 26.650000000000002 650.50000000000011 3.3820112359363974 181.83333333333334 22.050000000000004 299.50000000000006 1 260.50000000000006 19.850000000000005 6.0500000000000007 0.99761913169647187 6.1500000000000012 -618.99999999999989 285.9116996011291 7.7500000000000009 3.4500000000000006 4.9500000000000011 609.10000000000014 -2.1499999999999999 27.950000000000003
decision_type=8 10 10 2 1 8 8 8 8 8 10 10 8 10 8 10 1 10 10 8 2 8 8 10 10 10 10 10 8 10
left_child=2 3 8 -2 9 22 23 14 13 -5 11 12 19 -1 15 -7 17 18 20 -8 -11 -20 -6 -4 -25 26 -21 -10 -29 -9
right_child=1 -3 6 4 5 7 10 29 27 16 -12 -13 -14 -15 -16 -17 -18 -19 21 25 -22 -23 -24 24 -26 -27 -28 28 -30 -31
leaf_value=0.13144908066225 -0.037048450898028426 0.095061265242784243 -0.01656780645204289 -0.064211649988554109 0.060641329268376287 0.0050290068201748334 0.1028134789777303 0.057505369255962772 -0.043386723562772039 -0.022913669682609199 0.10314832494184829 0.087667451717751796 0.12045073132078324 -0.0016297677088577276 -0.0044685197310738054 0.073277601262957168 0.089253181551327401 0.07851532137380364 -0.0040806338230260589 -0.055965760815348792 0.18928291712769027 0.076954019094357395 -0.052775511330393599 0.12246346442092733 -0.031694055853173413 -0.027250263883598802 0.15038076171861067 0.14673971527875179 -0.029051108619582457 0.096934387858742269
leaf_weight=11.613058693706988 66.684730589389801 4632.2156121581793 119.963418610394 10.456886455416678 13.333103649318216 65.051172163337469 13.450818099081514 388.42675746977329 942.95885089784861 47.991980340331793 57.124160103499889 65.449062868952751 14.056648522615431 37.115836217999458 96.804680794477463 95.332830108702183 691.54581230133772 496.33560764044523 28.308088038116693 5.8370426446199444 3.5485480800271025 109.68069073185325 78.967185206711292 18.894328057765961 13.479029707610605 78.954106204211712 10.261211805045603 8.4342939779162389 15.110647678375246 112.64079451560974
leaf_count=64 807 2848 1149 78 41 424 71 1065 14990 428 109 94 41 277 527 215 1007 947 142 65 15 291 811 57 82 582 34 35 144 148
internal_value=0.0667772 0.083976 -0.0176804 0.0616996 0.0646413 0.042736 0.0343928 0.0529316 -0.0380673 0.0772019 0.0561775 0.041906 0.0174686 0.0300856 0.0267521 0.0455962 0.0788359 0.0683324 0.0416657 0.00412725 -0.00830401 0.0603299 -0.036392 -0.000662158 0.0582782 -0.0098378 0.0755619 -0.0415034 0.0339209 0.0663691
internal_weight=8350.03 6937.32 1412.7 2305.11 2238.42 850.557 397.47 758.256 1015.23 1387.87 245.133 188.009 122.56 48.7289 257.189 160.384 1377.41 685.865 189.529 108.503 51.5405 137.989 92.3003 152.337 32.3734 95.0524 16.0983 966.504 23.5449 501.068
internal_count=27588 9794 17794 6946 6139 3231 2284 2379 15510 2908 996 887 793 341 1166 639 2830 1823 876 752 443 433 852 1288 139 681 99 15169 179 1213
cat_boundaries=0 1 2
cat_threshold=2 2
is_linear=0
shrinkage=0.05


Tree=12
num_leaves=31
num_cat=3
split_feature=0 1 0 37 39 31 2 24 18 27 1 39 9 22 35 18 40 18 12 0 3 22 21 18 11 36 18 32 23 17
split_gain=4643.08 701.058 546.062 219.566 175.025 170.207 141.139 123.919 110.456 98.3858 80.5034 73.4909 68.5747 67.8402 77.995 66.2447 63.3565 61.1244 59.9247 58.7194 54.2747 57.0287 53.8728 51.3386 50.3462 48.7326 51.2119 82.8965 49.0418 58.7788
threshold=99.500000000000014 22.250000000000004 903.50000000000011 1.0000000180025095e-35 0 -685.99999999999989 7.6500000000000012 966.64822092096824 4.8500000000000005 2.1283796653792808 19.650000000000002 1 145.50000000000003 341.7000000000001 1.0000000180025095e-35 39.850000000000001 2 6.1500000000000012 25.650000000000002 3118.0000000000005 3.6500000000000008 315.80000000000007 300.22547081439461 5.1500000000000012 23.250000000000004 -0.49812626372919411 104.85000000000001 1.099999999999999 25.500000000000004 3.7500000000000004
decision_type=8 10 10 2 1 8 10 10 8 10 8 1 8 10 2 10 1 8 10 10 10 10 10 8 10 2 10 10 10 10
left_child=1 5 3 6 10 -1 15 9 18 12 22 23 13 14 24 -2 -12 -8 -3 -4 21 -14 -5 -10 -6 28 -27 -28 -7 -30
right_child=2 8 19 4 7 25 17 -9 11 -11 16 -13 20 -15 -16 -17 -18 -19 -20 -21 -22 -23 -24 -25 -26 26 27 -29 29 -31
leaf_value=0.05980134923113134 -0.052380919542659193 -0.05679073030220852 0.082170123720519073 -0.0032111872661033168 -0.060663900959886302 -0.038463656225594882 -0.058553306357578744 0.081545837633610396 0.13299142032668518 0.069283279172184783 0.067114999409198003 0.065833723643856507 -0.060881811907321705 0.10428668280202538 0.068183632823149903 0.10360223414641485 0.090200115353085461 0.051404961042473864 0.068058391961436912 0.093797409904492382 -0.045146085897983988 0.083562786096063255 0.064311793815184148 0.0067982926843010039 0.016573199698969945 -0.048203439699592121 -0.055935764224310708 0.33854779265739654 0.0561740161822099 -0.021901792258801428
leaf_weight=44.113597042858601 76.791513081640005 40.698669046163559 1712.2530029565096 51.30083367228508 34.272673826664686 200.28835226222873 13.864558473229406 113.32706794887781 8.6530404016375524 82.075495548546314 603.31648456305265 230.77684651315212 10.452602826058866 24.51573932915926 44.087843619287014 7.4686962105333796 585.79094868898392 142.93253601714969 12.582565970718859 2968.0409959256649 79.914600983262062 19.734760902822018 69.63851647824049 117.51550059765577 54.888792529702187 767.96561462804675 3.2709166333079329 2.2463085502386093 35.369250800460577 75.699776113033295
leaf_count=160 883 427 1447 324 285 3111 145 166 19 191 1265 729 82 42 139 21 518 609 48 1540 484 47 170 828 201 12407 47 18 357 828
internal_value=0.0621721 -0.0161333 0.0801754 0.0584086 0.0644949 -0.0364744 0.0136357 0.0353414 0.0398462 0.0213882 0.07397 0.0498702 0.006713 0.0278471 0.0137835 -0.0385548 0.0784874 0.0416821 -0.0273071 0.0895436 -0.0235701 0.0335478 0.0356695 0.0143182 -0.0131159 -0.0403894 -0.047113 0.104676 -0.0236864 0.00296097
internal_weight=8233.85 1539.18 6694.67 2014.37 1773.32 1128.95 241.057 463.27 410.227 349.943 1310.05 356.945 267.867 157.765 133.249 84.2602 1189.11 156.797 53.2812 4680.29 110.102 30.1874 120.939 126.169 89.1615 1084.84 773.483 5.51723 311.357 111.069
internal_count=27538 18979 8559 5572 3914 16928 1658 1637 2051 1471 2277 1576 1280 667 625 904 1783 754 475 2987 613 129 494 847 486 16768 12472 65 4296 1185
cat_boundaries=0 1 2 3
cat_threshold=3 8 2
is_linear=0
shrinkage=0.05


Tree=13
num_leaves=31
num_cat=4
split_feature=0 1 0 31 39 28 10 25 40 39 31 38 13 40 9 21 11 8 16 1 1 0 1 9 24 27 5 13 27 5
split_gain=4048.21 630.036 511.394 171.872 162.492 122.63 121.288 121.218 107.231 101.62 94.7889 80.467 77.3345 76.945 75.7029 69.8177 75.4701 74.6075 67.3893 57.6372 55.748 54.3395 52.4515 80.4426 93.5861 51.2405 79.7277 49.7505 49.7327 74.0226
threshold=110.50000000000001 18.450000000000003 998.50000000000011 -21.499999999999996 0 7.6225000000000014 2063.5000000000005 22.416666666666668 1 2 873.50000000000011 6.5000000000000009 26.550000000000004 3 892.50000000000011 37.186461604630004 25.450000000000003 80.500000000000014 32.750000000000007 21.250000000000004 8.4500000000000011 260.50000000000006 27.950000000000003 141.50000000000003 966.64822092096824 0.35118845842843921 3.1500000000000008 21.150000000000002 0.50332229568492037 5.8500000000000005
decision_type=8 10 10 8 1 8 10 8 1 1 8 10 10 1 8 10 10 8 10 8 10 8 8 8 10 8 10 8 10 8
left_child=1 6 4 11 5 -2 12 -6 25 -10 22 -3 -1 21 -8 27 17 -17 28 20 -15 -7 23 -9 -25 26 -5 -13 -11 -30
right_child=2 3 -4 8 7 13 14 10 9 18 -12 15 -14 19 -16 16 -18 -19 -20 -21 -22 -23 -24 24 -26 -27 -28 -29 29 -31
leaf_value=-0.046006775409645179 -0.041226270197934005 -0.032532067641629657 0.085974260643645203 0.1273149018363928 -0.01346691590306621 0.029526675841218541 0.15820030069167818 0.063230332367110578 -0.043070482110407288 0.15166228190077155 -0.036146974353656137 0.19443245075180726 0.19455072433863962 -0.038980630107346058 -0.060514500245907391 -0.043988487219734446 0.087637639096595388 0.047031216237723029 0.0046542429067047645 0.085949356202306926 0.062701331659571508 0.061991902925751421 0.075826792590473327 -0.031176674465446797 0.062019445689539758 -0.025180452838830643 -0.056445051732329332 0.06229765196619054 -0.061166797290060609 0.08450511078660139
leaf_weight=830.85660250112414 26.870680455118418 25.451390959322453 4489.649546995759 14.221820358186962 118.07056768238544 157.07796183228493 12.046257156878712 135.20355480909348 29.388007894158363 19.63493662327528 33.978777147829533 15.613513272255661 3.3544801920652381 14.384661041200159 5.8912203535437575 28.371608190238476 87.54477820545435 109.04637043550611 42.387769863009453 579.51295218244195 214.27629562467337 718.23795196413994 136.78383769840002 67.559166118502617 44.800326108932495 236.50099239498377 10.090735923498867 13.100943692028521 10.429458081722258 53.228129372000694
leaf_count=14279 306 183 2751 103 822 737 48 307 291 27 303 66 4 79 50 251 179 448 243 500 489 1519 235 334 70 2639 117 50 87 150
internal_value=0.0594775 -0.0134581 0.0762287 0.0218722 0.0567544 0.0643694 -0.0422734 0.0307008 0.00150208 0.0344288 0.0439008 0.0522222 -0.0450395 0.0664372 0.0863676 0.0607256 0.0513542 0.0282391 0.0518519 0.0775618 0.0563047 0.0561659 0.0509776 0.0372478 0.00598277 -0.0180747 0.0510468 0.134146 0.0820961 0.0606387
internal_weight=8283.57 1547.16 6736.41 695.01 2246.76 1710.36 852.149 536.396 415.882 155.068 418.326 279.129 834.211 1683.49 17.9375 253.677 224.963 137.418 125.68 808.174 228.661 875.316 384.347 247.563 112.359 260.814 24.3126 28.7145 83.2925 63.6576
internal_count=27667 19215 8452 4834 5701 3630 14381 2071 3657 798 1249 1177 14283 3324 98 994 878 699 507 1068 568 2256 946 711 404 2859 220 116 264 237
cat_boundaries=0 1 2 3 4
cat_threshold=3 2 8 2
is_linear=0
shrinkage=0.05


Tree=14
num_leaves=31
num_cat=2
split_feature=0 25 0 40 36 8 40 1 1 26 35 1 0 8 22 5 9 0 18 18 32 26 8 1 27 35 0 21 3 3
split_gain=3534.96 647.484 541.845 163.623 149.301 132.203 124.747 116.443 88.7764 78.469 68.2886 68.2956 74.5059 67.976 63.5567 103.517 109.734 60.7059 55.9368 58.701 48.7232 71.9105 57.7737 48.0326 69.5633 186.347 47.502 47.4391 46.3015 48.2315
threshold=96.500000000000014 19.741666666666671 961.50000000000011 0 -0.099822328936730861 975.50000000000011 1 19.750000000000004 21.250000000000004 13.15 0.52033990680116082 26.350000000000005 15.500000000000002 2789.5000000000005 78.100000000000009 5.1500000000000012 99.500000000000014 345.50000000000006 3.8500000000000001 12.850000000000003 0.75000000000000011 22.150000000000002 518.50000000000011 18.450000000000003 0.63574069958825441 0.74443451080969758 2587.0000000000005 47.721413781799718 8.3500000000000032 7.1500000000000012
decision_type=8 10 10 1 2 10 1 8 10 8 2 10 10 8 10 8 8 10 10 10 8 10 8 10 8 2 10 10 8 10
left_child=1 14 3 4 7 -6 8 -2 -3 17 11 20 13 -13 23 -16 -17 -5 -8 -20 21 -10 -23 -1 25 -25 -4 -9 29 -29
right_child=2 6 26 9 5 -7 18 27 10 -11 -12 12 -14 -15 15 16 -18 -19 19 -21 -22 22 -24 24 -26 -27 -28 28 -30 -31
leaf_value=-0.049672674064517162 -0.016947527019115564 -0.038882184986907639 0.074178659660734281 -0.057318142370712859 -0.017005407678352142 0.059070647720358742 -0.061525592103115805 0.026044799274770408 0.14260574199509904 0.071640805913250782 0.15009579741652931 -0.059462535964971287 0.10917700265777906 0.13029591113096339 -0.04896592051266143 0.09224213068058823 -0.030212848058794775 0.065130336819303289 0.094493971845587083 0.04213212797838245 -0.034972112137378039 -0.01343813087821254 0.058687226035575329 0.010017135235910683 -0.030493569513821112 0.48324944957424276 0.085248671968352174 0.058227275435726436 0.070564686229834112 0.023863038496392847
leaf_weight=658.22654374688864 62.877892479300499 75.163825698196888 1385.3025756180286 21.440474901348352 181.08686588332057 83.410545960068703 9.721050623804329 137.99651332944632 10.931593827903269 844.06388895213604 10.107234016060827 16.594257503747944 36.399470612406731 6.595155417919158 78.985326945781708 38.162336889654398 35.141334615647793 19.173827677965164 83.408792596310377 149.39301331341267 58.143382579088211 89.020351752638817 40.349522672593594 13.602105315774681 90.916380759328604 2.4558168835937968 3225.2759717404842 314.70778991281986 381.82357104122639 151.14755178242922
leaf_count=12283 388 974 1142 236 1581 177 85 516 60 1182 21 137 72 10 1163 320 452 50 157 489 558 784 125 178 1234 7 1745 633 675 406
internal_value=0.0568616 -0.0125311 0.0721839 0.0517535 0.040555 0.00698555 0.0285342 0.0490229 0.00914154 0.0683743 0.0226033 0.0176094 0.0645518 -0.00549453 -0.0387518 -0.00925302 0.033538 0.000489228 0.0559856 0.0608925 0.00351355 0.0194627 0.00905724 -0.0446225 -0.0135485 0.0823909 0.0819226 0.0532313 0.0576571 0.0470777
internal_weight=8311.62 1503.32 6808.31 2197.73 1313.05 264.497 585.828 1048.55 343.305 884.678 268.141 258.034 59.5889 23.1894 917.49 152.289 73.3037 40.6143 242.523 232.802 198.445 140.301 129.37 765.201 106.974 16.0579 4610.58 985.675 847.679 465.855
internal_count=27840 19109 8731 5844 4376 1758 3472 2618 2741 1468 1767 1746 219 147 15637 1935 772 286 731 646 1527 969 909 13702 1419 185 2887 2230 1714 1039
cat_boundaries=0 1 2
cat_threshold=2 2
is_linear=0
shrinkage=0.05


Tree=15
num_leaves=31
num_cat=1
split_feature=0 11 0 36 20 39 5 36 35 11 31 24 28 18 36 27 18 17 13 5 3 32 3 16 6 32 23 3 7 13
split_gain=3140.12 618.718 546.041 150.518 166.649 131.57 103.611 82.8724 89.2988 78.2097 79.3506 73.7262 87.9561 68.5737 80.1045 67.7188 58.9592 156.481 57.2696 66.6284 56.591 57.176 55.0515 61.1904 58.6691 54.8295 59.3574 54.7745 62.4689 54.5097
threshold=110.50000000000001 18.050000000000004 952.50000000000011 -0.056951011027366626 871.50000000000011 0 4.9500000000000011 -0.22700609751797865 -0.96902457013955734 25.550000000000004 -19457.999999999996 0.0011050470473154318 25.045000000000005 4.3500000000000005 -0.88220415136009767 1.9087517736293711 88.350000000000009 13.250000000000002 18.550000000000004 6.6500000000000012 4.1500000000000012 4.1500000000000021 7.7500000000000009 4.6500000000000012 7.6500000000000012 -0.79999999999999793 1022.5000000000001 13.450000000000001 450.50000000000006 22.150000000000002
decision_type=8 10 10 2 10 1 8 2 2 8 10 8 10 10 2 8 10 8 8 8 10 10 8 8 10 10 10 8 10 10
left_child=1 16 3 5 -5 18 7 8 -3 22 -11 12 20 -10 -15 -16 -1 -18 19 -2 -8 -22 -7 -24 -25 26 -13 28 -26 -27
right_child=2 6 -4 4 -6 9 11 -9 13 10 -12 25 -14 14 15 -17 17 -19 -20 -21 21 -23 23 24 27 29 -28 -29 -30 -31
leaf_value=-0.042837957226729735 0.0034925140363448654 0.23655871723995359 0.078542744032338366 -0.018659449401875781 0.045057371122906142 -0.032895684135383317 0.16630751885706274 -0.050081686126469474 -0.031873944439569708 -0.06286972457262649 0.057536760876103911 -0.021565980073323512 0.12840572778383119 -0.016496726531669441 0.074416017958028491 -0.03281486401642987 0.37964109650899952 -0.05398273436080199 0.068014862917124969 0.068544136169137612 -0.044559663735206541 0.10142436370619984 0.086264353378055283 -0.063407095487844733 -0.027293785501058335 0.094908214589161377 0.049748669868035583 0.10802388850956646 0.061196471989018765 0.042225256953059544
leaf_weight=785.19018896669149 79.528014779090881 4.4250987395644179 4579.1569250971079 161.29930362850428 282.08948360010982 59.55661441385746 3.8668797537684432 63.931457296013832 69.288594350218773 14.608219981193541 216.11016365140676 45.193967252969742 11.417534619569777 63.486551139503717 82.439581792801619 17.924754705280066 3.0231174714863274 6.6728511154651651 1055.3588814735413 77.938218310475349 66.747892946004868 7.4564955681562415 31.18155787140131 23.395459577441216 49.867230642586946 91.153868645429611 82.335552778095007 16.424004822969437 33.236872389912605 106.42260858416557
leaf_count=14274 342 8 2911 1541 678 315 14 831 805 114 389 403 40 626 434 182 5 106 1404 162 728 14 100 172 236 328 191 19 62 343
internal_value=0.0541362 -0.0109565 0.0688604 0.0477535 0.021878 0.0546766 0.0227532 0.000450442 0.0140492 0.0290731 0.0499131 0.038972 -0.00121608 0.0098259 0.0274598 0.0552649 -0.0413247 0.0812174 0.0632961 0.0356899 -0.0201726 -0.0298903 0.00793011 0.023708 0.00783951 0.0500342 0.0244762 0.024587 0.00809724 0.0665311
internal_weight=8190.73 1510.98 6679.75 2100.59 443.389 1657.21 716.091 301.496 237.565 444.38 230.718 414.595 89.4888 233.139 163.851 100.364 794.886 9.69597 1212.83 157.466 78.0713 74.2044 213.662 154.105 122.924 325.106 127.53 99.5281 83.1041 197.576
internal_count=27777 19332 8445 5534 2219 3315 4947 2886 2055 1407 503 2061 796 2047 1242 616 14385 111 1908 504 756 742 904 589 489 1265 594 317 298 671
cat_boundaries=0 1
cat_threshold=3
is_linear=0
shrinkage=0.05


Tree=16
num_leaves=31
num_cat=2
split_feature=0 1 0 24 39 24 36 23 4 36 4 22 39 28 10 19 7 1 35 30 4 16 30 27 27 35 4 36 5 35
split_gain=2827.8 742.102 367.296 168.57 158.373 134.759 121.688 111.751 94.434 79.798 72.4443 68.9033 66.4543 65.5616 59.4934 93.4236 57.994 57.599 48.9546 48.5826 55.0001 46.5313 43.7278 43.1665 42.7616 48.0524 49.131 52.4129 42.7427 64.4952
threshold=245.50000000000003 18.450000000000003 998.50000000000011 324.23587087771483 0 0.00040203477240763997 -0.67801649466304881 2162.5000000000005 1.5500000000000003 -0.42179730054635828 1.9500000000000002 190.10000000000002 1 17.36333333333334 1820.5000000000002 852.50000000000011 24.500000000000004 25.450000000000003 -0.87395131947920313 1.6037456157383634 0.8500000000000002 3.6500000000000008 2.1709444949145875 0.39999999999992913 0.64291005073285201 0.67167992559793654 3.4500000000000006 -0.91595872546125101 8.0500000000000025 0.99818282439137029
decision_type=8 10 10 10 1 8 2 10 10 2 10 10 1 8 10 10 10 10 2 8 8 10 10 10 10 2 8 2 10 2
left_child=1 3 4 28 -2 17 13 -8 12 -10 -9 -5 16 -6 23 -16 -7 24 -14 20 -18 -19 -23 -13 25 26 -3 -28 -1 -30
right_child=2 5 -4 11 6 8 7 10 9 -11 -12 14 18 -15 15 -17 19 21 -20 -21 -22 22 -24 -25 -26 -27 27 -29 29 -31
leaf_value=-0.046510940211613873 0.060279195252625262 -0.039103623481342227 0.076197674767353507 0.20259169496357943 -0.0437348009341577 -0.024384455922632019 -0.022710686024750501 0.055262680038526329 0.022465143802097305 -0.057145158001250654 -0.052865313551333476 0.05199051759929945 0.028401009027176152 0.053603165778902187 0.11474832582204342 -0.063443865647982808 0.057829597805354516 0.11639887334974844 0.064915012744373016 0.062824131741843425 -0.062363361251352147 -0.060678854326856962 0.053122324516720977 -0.039220768323640097 -0.036082404603107278 0.1563321704118405 0.15905489828813738 -0.055293973164661447 -0.010872179296153146 0.22914044144751702
leaf_weight=722.89692714065313 1196.2234093844891 25.291155569255352 4352.4472379982471 5.0900664068758479 18.27632824331522 59.073727622628212 164.80704870820045 108.26262782514095 135.02565332502127 41.045455645769835 18.077130429446697 17.814661867916584 123.63483576849103 323.54800407588482 26.425186332315207 10.192864768207071 17.494590628892183 14.143523298203943 356.42788623273373 67.899764697998762 20.875219944864511 13.746144905686377 21.872780814766884 47.712839037179947 127.25966092944145 5.7262677103281012 7.9703931920230389 4.4409384019672853 30.928141795098782 3.0774866715073577
leaf_count=13803 1985 310 2726 32 115 509 1130 178 760 466 80 97 469 626 84 75 80 39 848 234 168 112 89 551 1589 17 40 57 530 16
internal_value=0.0518794 -0.00136383 0.0682965 -0.0356217 0.0494963 0.0270484 0.0277279 0.00441134 0.0363635 0.0039065 0.0397914 0.0230486 0.045218 0.0483988 0.0141017 0.0651474 0.014458 -0.007663 0.0543785 0.0374105 -0.00756177 0.0396709 0.00920389 -0.0144236 -0.0214627 0.0213775 0.000880502 0.082358 -0.0439339 0.0108488
internal_weight=8087.71 1906.07 6181.64 864.138 1829.19 1041.93 632.971 291.147 821.477 176.071 126.34 107.236 645.406 341.824 102.146 36.6181 165.343 220.451 480.063 106.27 38.3698 49.7624 35.6189 65.5275 170.688 43.4288 37.7025 12.4113 756.903 34.0056
internal_count=27815 20975 6840 15188 4114 5787 2129 1388 3534 1226 258 839 2308 741 807 159 991 2253 1317 482 248 240 201 648 2013 424 407 97 14349 546
cat_boundaries=0 1 2
cat_threshold=2 8
is_linear=0
shrinkage=0.05


Tree=17
num_leaves=31
num_cat=2
split_feature=0 1 0 39 1 37 21 11 12 15 15 25 27 24 8 27 14 13 23 40 4 18 21 16 13 25 30 1 3 13
split_gain=2580.16 566.997 462.412 169.828 102.522 90.9429 72.7436 70.9628 69.5205 67.2285 64.7552 63.335 56.021 62.9941 76.3462 61.4348 55.6366 85.8301 78.7937 53.0551 51.7935 54.6463 51.626 50.4226 66.1433 54.9086 49.0104 47.726 62.281 56.6531
threshold=110.50000000000001 21.350000000000005 1216.5000000000002 0 20.950000000000003 1.0000000180025095e-35 28.867513459481422 17.250000000000004 3.9500000000000006 2.4500000000000006 19.950000000000003 19.541666666666675 2.6907248094147445 425.14585731901315 365.50000000000006 1.4571661996263006 14.550000000000002 16.850000000000005 155.50000000000003 1 1.7500000000000002 35.050000000000004 411.82196568775436 3.5500000000000003 20.250000000000004 22.416666666666668 2.9676590100615834 6.7500000000000009 6.5500000000000007 8.0500000000000025
decision_type=8 10 10 1 8 2 10 8 8 8 10 10 10 10 8 10 10 8 8 1 10 10 10 8 10 8 8 10 10 10
left_child=1 6 3 4 20 -6 -1 -5 -8 -3 -10 -11 13 14 23 -15 -12 18 -18 -7 26 27 -19 24 -9 -25 -2 29 -29 -22
right_child=2 9 -4 7 5 19 8 12 10 11 16 -13 -14 15 -16 -17 17 22 -20 -21 21 -23 -24 25 -26 -27 -28 28 -30 -31
leaf_value=-0.042869977196119152 0.04814499333550791 -0.056405938413467485 0.073945626589937655 -0.060914892400333598 -0.034203362047303836 0.053436993551035011 0.15213335808887429 0.11495097193744555 -0.030407712423999041 -0.040772440784382698 -0.054313593539197638 0.037937411088982229 0.069146561141453053 0.054583083514903985 -0.039701939013408565 -0.026414369907120316 0.33929971227667988 -0.056677056007250086 0.069094087705386623 0.073075534206809442 -0.05922652008685695 0.080074088932171258 0.06528443247338668 -0.051712100232534836 -0.014933618187843153 0.020872717421402075 -0.020413539887746527 0.046672079513862125 -0.053488494732797848 0.13411902588894536
leaf_weight=656.7188158929348 379.28738686069846 21.45347460731864 4071.0573940128088 24.933194607496262 24.658712666481733 731.33712437748909 6.3336326181888571 27.377872511744499 186.75601312145591 26.941092818975449 15.449553698301314 497.80910521745682 64.349940445274115 155.78135028481483 71.933023445308208 27.550854951143265 4.4405836127698395 14.272473834455011 6.8752892650663862 649.20181533694267 5.8222965858876732 20.286887899041176 22.131687987595797 31.723591782152653 15.268329732120035 145.80998158827424 27.991701073944569 21.238057650625706 57.649699524044991 10.847623180598019
leaf_count=13176 1017 258 2540 275 255 1231 56 55 2621 293 239 2192 103 265 507 93 14 184 62 525 68 27 64 245 86 491 116 69 446 28
internal_value=0.050192 -0.00994613 0.0635606 0.0466022 0.0536595 0.0609721 -0.0340537 0.0211791 -0.01146 0.0303495 -0.0156058 0.0338964 0.0253634 0.0194375 0.00501922 0.0424109 0.028155 0.0548546 0.175128 0.0626721 0.0350424 0.00554295 0.0174687 0.0196297 0.0684493 0.00790249 0.0434331 -0.01028 -0.0265234 0.0665893
internal_weight=8023.29 1459.18 6564.11 2493.05 1928.32 1405.2 912.978 564.728 256.259 546.204 249.926 524.75 539.795 475.445 292.113 183.332 63.1696 47.72 11.3159 1380.54 523.124 115.845 36.4042 220.18 42.6462 177.534 407.279 95.5577 78.8878 16.6699
internal_count=27601 19159 8442 5902 3782 2011 16416 2120 3240 2743 3184 2485 1845 1742 1384 358 563 324 76 1756 1771 638 248 877 141 736 1133 611 515 96
cat_boundaries=0 1 2
cat_threshold=3 2
is_linear=0
shrinkage=0.05


Tree=18
num_leaves=31
num_cat=2
split_feature=0 0 1 23 34 20 34 1 17 39 27 30 5 14 14 27 5 8 5 14 29 13 35 11 18 2 40 26 15 25
split_gain=2362.21 510.049 479.591 176.114 171.737 117.402 95.9661 85.5951 72.5112 64.0165 65.7187 63.8505 118.215 80.8818 83.8881 71.4472 63.3645 61.0855 57.3317 52.7513 58.0252 56.2627 60.0218 51.8527 66.0467 51.4393 51.47 49.4644 46.8182 42.5928
threshold=110.50000000000001 1398.5000000000002 21.250000000000004 1022.5000000000001 35.500000000000007 63.500000000000007 13.500000000000002 26.450000000000003 46.850000000000001 0 0.64291005073285201 1.9704060454388781 5.1500000000000012 16.650000000000002 15.750000000000002 1.4189197769195376 5.9500000000000011 518.50000000000011 3.7500000000000004 20.950000000000003 30.650000000000002 20.650000000000002 0.50557357885840837 23.150000000000002 5.7500000000000009 8.1500000000000004 1 28.050000000000004 2.6500000000000008 23.016666666666673
decision_type=8 10 10 10 2 10 2 10 10 1 10 8 8 8 10 8 10 8 10 8 10 10 2 8 8 10 1 8 8 10
left_child=2 3 5 4 6 -1 -2 17 11 28 -11 12 -7 14 15 -14 -6 19 -10 21 -21 22 -4 24 -5 26 -26 29 -8 -19
right_child=1 -3 7 23 16 8 9 -9 18 10 -12 -13 13 -15 -16 -17 -18 27 -20 20 -22 -23 -24 -25 25 -27 -28 -29 -30 -31
leaf_value=-0.044396118165199228 -0.036304196829748246 0.072403717386913299 -0.032978215873201502 -0.0050799504178892004 -0.032389980247878675 -0.03551006536978462 -0.030851063212764058 0.0614041220135573 -0.01206788452040642 -0.031339954445866881 0.030995616670362255 -0.042362041656614918 -0.014604007275488102 0.013014199425576321 0.25677119880712262 0.18971831182087601 0.030378853211016535 -0.017112855358658918 0.15728462978812227 -0.027798720472379232 0.080531891702053104 0.064843123736203254 0.050005318051849927 0.062924845903671839 0.01347212796801754 0.070174069070723738 0.053658637276412451 -0.047762191734872818 0.052385667720929521 0.069218760083938985
leaf_weight=631.85668984055519 41.690742112696171 3842.7847305387259 54.13972295448184 61.779651895165443 135.09577798098326 68.662209145724773 17.341815270483494 133.69590550661087 8.6324161626398581 52.228718303143978 222.0206579528749 99.926178526133299 10.954903889447456 39.534680303186178 8.3773971572518331 7.0203818604350081 57.243077099323273 16.885689843446016 11.868284516036509 135.07480539754033 13.606151863932608 54.144632924348116 36.468331083655357 900.18149297684431 132.27146108448505 192.13390331715345 200.38270891457796 12.847496941685675 653.78483255952597 92.827927373349667
leaf_count=13246 581 2365 576 201 1066 1097 73 329 79 287 627 1459 156 321 27 36 219 101 44 1048 28 283 163 957 381 232 279 62 1163 168
internal_value=0.0479376 0.0607453 -0.0100945 0.0439417 0.0295135 -0.0328396 0.0379358 0.0266008 -0.00420139 0.0412098 0.0184515 -0.0120856 0.0103999 0.0582433 0.126097 0.0651956 -0.013709 0.0154155 0.0859738 0.00303274 -0.0178851 0.0245183 0.000421365 0.0553873 0.0438197 0.0495763 0.0376795 0.045062 0.0494973 0.0559317
internal_weight=7945.46 6508.94 1436.52 2666.15 1179.41 886.833 987.067 549.691 254.976 945.376 274.249 234.476 134.55 65.8874 26.3527 17.9753 192.339 415.995 20.5007 293.434 148.681 144.753 90.6081 1486.75 586.568 524.788 332.654 122.561 671.127 109.714
internal_count=27654 8431 19223 6066 4016 16465 2731 2758 3219 2150 914 3096 1637 540 219 192 1285 2429 123 2098 1076 1022 739 2050 1093 892 660 331 1236 269
cat_boundaries=0 1 2
cat_threshold=3 2
is_linear=0
shrinkage=0.05


Tree=19
num_leaves=31
num_cat=1
split_feature=0 0 1 36 24 10 22 40 32 6 1 7 18 9 36 0 2 2 3 4 20 22 1 16 5 24 35 5 16 25
split_gain=2169.5 533.192 359.839 144.331 153.523 103.865 101.322 99.3427 71.7073 61.7656 60.5915 69.4109 57.084 56.6266 53.3683 52.6755 52.4432 51.2478 49.8713 52.7346 48.5558 45.3937 67.8832 44.8774 51.2828 50.8276 42.4704 44.3596 46.7576 41.5818
threshold=44.500000000000007 984.50000000000011 18.550000000000004 0.029024409397335523 339.89616064460523 485.50000000000006 945.30000000000007 0 -3.7999999999999989 19.050000000000004 25.150000000000002 158.50000000000003 28.450000000000003 100.50000000000001 -0.39036009226888674 3118.0000000000005 7.8500000000000005 7.1500000000000012 8.3500000000000032 0.75000000000000011 3702.0000000000005 53.675000000000004 23.550000000000004 33.050000000000004 8.6500000000000004 160.71869834942268 0.70290292807158616 4.1500000000000012 16.450000000000003 19.541666666666675
decision_type=8 10 10 2 10 10 10 1 10 10 8 10 10 10 2 10 8 8 8 10 10 10 8 10 10 10 2 8 10 10
left_child=2 3 5 7 23 -1 9 10 -7 -4 11 16 18 26 -12 -3 -2 -10 19 -13 -16 22 -9 24 -5 -25 29 -28 -29 -11
right_child=1 15 6 4 -6 8 -8 21 17 13 14 12 -14 -15 20 -17 -18 -19 -20 -21 -22 -23 -24 25 -26 -27 27 28 -30 -31
leaf_value=-0.045384849314253774 -0.020611294904262757 0.061269320810480532 -0.0082783429362770413 -0.048658092605968505 0.033621638499978033 0.13159138257939568 0.059176330855533615 0.058896170591442434 0.094955792866472294 -0.056118422287465192 0.052586068336148588 -0.058062956764341714 -0.054464149410332542 -0.064148962860565817 -0.053761089858630866 0.073014289006835417 0.027715620138605426 -0.054886712359733497 0.061587863217961537 0.033262073877556385 0.065789863003149304 0.064510176630230787 -0.036508527996174316 -0.058127490928651354 0.07251297184505319 0.10361213239903695 0.22060580222047865 0.14908169079319528 -0.055693082836716368 0.040725694081768647
leaf_weight=607.4823053330183 110.34767296537757 1474.7114412933588 309.33836328238249 114.94783686473966 328.3920507542789 13.461892880499361 103.54377650469542 52.275984808802605 8.1762130744755286 12.429562192410229 546.70724733546376 16.965469017624855 16.062725462019444 14.08933888748288 23.11167398840189 2707.0678113251925 114.26955817267299 18.888367928564548 179.98397413268685 231.54117142409086 13.427858144044874 649.01375743374228 28.981834303587675 7.9635081253945854 9.4498615227639657 12.453736729919909 6.2551032193005112 6.0302316099405271 5.1842284090816975 102.38879884406924
leaf_count=13370 638 1223 3179 1581 952 65 171 128 48 164 1012 74 71 104 142 1539 466 286 342 614 15 686 136 91 41 35 16 11 68 448
internal_value=0.0467988 0.0580124 -0.0148551 0.0395206 0.0147095 -0.0402145 0.0145285 0.0454423 0.0372874 0.00438406 0.036896 0.0266286 0.0380752 0.0311435 0.048676 0.0688724 0.00397406 -0.00961927 0.0415442 0.0270273 -0.00982749 0.0600992 0.0248686 -0.028177 -0.0394533 0.0405275 0.0412926 0.113923 0.0544183 0.0302419
internal_weight=7844.94 6637.68 1207.27 2455.9 473.207 648.009 559.259 1982.69 40.5265 455.716 1252.42 669.171 444.553 146.377 583.247 4181.78 224.617 27.0646 428.491 248.507 36.5395 730.272 81.2578 144.815 124.398 20.4172 132.288 17.4696 11.2145 114.818
internal_count=27716 9786 17930 7024 2700 13769 4161 4324 399 3990 3374 2205 1101 811 1169 2762 1104 334 1030 688 157 950 264 1748 1622 126 707 95 79 612
cat_boundaries=0 1
cat_threshold=2
is_linear=0
shrinkage=0.05


Tree=20
num_leaves=31
num_cat=2
split_feature=0 0 11 39 24 40 14 9 22 9 7 32 24 32 24 32 4 36 20 6 4 0 3 9 13 4 17 1 11 12
split_gain=2059.19 442.903 364.173 124.574 121.562 100.12 88.2606 83.3895 61.6625 63.2208 58.9557 68.2382 56.9765 56.9626 55.9173 51.6508 48.2536 48.1911 82.7616 51.9741 47.573 46.2267 45.2247 44.081 43.1265 90.6946 38.4432 37.1791 36.955 43.8758
threshold=93.500000000000014 1543.0000000000002 18.050000000000004 0 966.64822092096824 1 15.15 265.50000000000006 52.100000000000009 9.5000000000000018 1708.0000000000002 -0.6999999999999994 77.265775088346643 -3.7999999999999989 0.0011050470473154318 -0.65000000000000024 1.1500000000000001 -0.21022037796396451 840.50000000000011 5.5500000000000007 1.2500000000000002 119.50000000000001 6.9500000000000011 667.50000000000011 2.8500000000000001 0.45000000000000007 81.350000000000009 23.850000000000005 5.4500000000000011 12.450000000000001
decision_type=8 10 10 1 10 1 8 8 10 10 10 10 8 8 10 10 10 2 10 10 10 10 10 10 8 10 10 10 10 8
left_child=2 3 8 6 7 10 28 21 24 12 11 -4 -10 -11 27 -13 23 -8 19 -19 -14 -5 -23 -9 25 -1 -16 -7 -2 -30
right_child=1 -3 5 4 -6 14 17 16 9 13 -12 15 20 -15 26 -17 -18 18 -20 -21 -22 22 -24 -25 -26 -27 -28 -29 29 -31
leaf_value=0.33838334087703598 -0.059535736427010502 0.068531910653028355 -0.039182808316193363 -0.032579530858482503 0.057911567043806206 -0.042650585783704592 0.056184281566695707 -0.032367186222496243 0.24981665558331279 0.14300004210588901 0.074428605083472862 0.1058172909990989 0.053679215523007723 -0.044098960435160789 0.055436152893804158 0.0025406066299710575 -0.061183481050068649 -0.059172555287945974 0.048639610453456411 0.01981360352437686 -0.053351305750556868 0.052642475465796458 0.013170830159013819 0.032916341951098264 -0.047352134904707785 -0.052263216402130122 -0.04051041332604486 0.034412217969679706 0.04342222501416089 -0.0089247496849337096
leaf_weight=2.2570401057600966 15.387224610894917 3595.5138888508081 111.40671788901091 33.012941781431437 176.07986530661583 30.813071195036173 1420.1179456450045 54.687793284654617 2.9100513346493235 4.2819805964827538 23.980259701609612 12.733657401055096 35.335674170404673 81.426500700414181 197.60705849155784 245.73325737193227 50.280319828540087 26.400527235120535 497.578862182796 98.651300236582756 14.701644409447907 125.29116937890649 172.45064587518573 49.048226501792669 515.53108877688646 4.3479987867176533 11.022339530289171 31.807796619832516 95.562852263450623 68.884100090712309
leaf_count=39 197 2278 1383 322 223 363 1755 410 39 23 30 68 372 1415 482 2256 340 316 766 455 282 282 608 105 11967 105 54 108 405 293
internal_value=0.0452067 0.0568249 -0.0115652 0.0422267 0.0219968 0.0145538 0.0479272 0.00940543 -0.0378547 -0.00821517 -0.00154539 -0.00647106 0.0347405 -0.0347515 0.0379297 0.00762865 -0.0209843 0.0510992 0.0395009 0.00313831 0.0222322 0.0235565 0.0297807 -0.00149998 -0.0457256 0.0812265 0.0503671 -0.00350712 0.0145617 0.0214949
internal_weight=7804.84 6478.95 1325.9 2883.43 660.851 665.104 2222.58 484.771 660.792 138.656 393.854 369.874 52.9474 85.7085 271.25 258.467 154.016 2042.75 622.631 125.052 50.0373 330.755 297.742 103.736 522.136 6.60504 208.629 62.6209 179.834 164.447
internal_count=27741 8755 18986 6477 2290 4744 4187 2067 14242 2131 3737 3707 693 1438 1007 2324 855 3292 1537 771 654 1212 890 515 12111 144 536 471 895 698
cat_boundaries=0 1 2
cat_threshold=3 2
is_linear=0
shrinkage=0.05


Tree=21
num_leaves=31
num_cat=3
split_feature=0 0 1 36 23 4 35 13 39 0 29 18 18 17 31 1 21 39 2 35 23 3 28 30 36 18 39 29 2 1
split_gain=1890.75 556.952 290.499 128.006 147.92 97.3883 90.2772 80.9121 81.9675 62.1723 61.6308 58.8654 56.5601 86.947 53.9686 53.8129 52.7745 51.8803 50.2106 49.6647 49.5988 48.7108 48.4259 48.1716 47.8376 61.9813 43.3418 46.5902 72.7179 45.3611
threshold=32.500000000000007 952.50000000000011 18.450000000000003 -0.41399101439218416 980.50000000000011 1.4500000000000002 0.98522604642031408 15.450000000000001 0 2506.5000000000005 26.550000000000004 59.250000000000007 88.350000000000009 13.250000000000002 -21.499999999999996 28.150000000000002 208.48939178709472 1 7.2500000000000009 -0.98214942551678475 820.50000000000011 6.5500000000000007 7.7291666666666687 0.95026312145642089 -0.9575230291762723 4.4500000000000011 2 18.650000000000002 7.9500000000000011 25.250000000000004
decision_type=8 10 10 2 10 10 2 8 1 10 10 10 10 8 8 10 10 1 10 2 10 10 10 10 2 8 1 8 10 10
left_child=2 3 10 7 6 14 11 23 24 -3 12 16 -1 -14 19 -10 -5 18 -6 -4 -18 -19 -8 -2 25 -9 -16 28 -28 -29
right_child=1 9 5 4 17 -7 22 8 15 -11 -12 -13 13 -15 26 -17 20 21 -20 -21 -22 -23 -24 -25 -26 -27 27 29 -30 -31
leaf_value=-0.04553486994641829 0.089754349484280765 0.054946465468988674 -0.043218293152234556 -0.044179783918334242 0.038126210388328578 -0.023519222729372791 -0.055478250224606979 -0.054296863503624865 0.014667526498758349 0.068395156685789493 0.10472200500991113 0.12279703170920853 0.24356534622163914 -0.053349116449977335 -0.017826552644470393 0.058705081272102437 0.034496340570281045 -0.0094812680911871457 -0.026901102521262033 0.056563289054391022 -0.046905467795863812 0.047328452915385205 0.088907412983771292 -0.042789671142680147 0.057629087896824319 0.040012321311293675 -0.053887666986459352 -0.0043418202660080972 0.23889258914736919 0.057227684868414078
leaf_weight=565.21800715103745 8.2329217419028264 1220.2556143254042 13.770228404551743 152.49541714787483 53.910558722913265 157.05016197636724 7.1973618157207957 18.773585870862007 325.98640381544828 2905.6952705383301 7.1052435785531989 6.7654729709029189 4.3184887096285793 5.7468014024198064 90.955412860959768 88.1245521530509 52.737161371856928 41.75563396140933 66.062199998646975 132.13061218708754 29.004925426095724 391.66482442989945 30.066843066364527 40.959841288626194 872.75943002104759 241.95224172621965 3.286123897880314 79.108271408826113 5.9804183207452297 48.107192888855934
leaf_count=13319 37 1115 92 1901 142 1908 114 91 1202 1780 18 21 7 110 932 124 323 141 276 399 228 744 110 346 1172 399 56 599 48 93
internal_value=0.0430051 0.0532358 -0.0172554 0.0342377 0.0183313 0.00951457 -0.0114056 0.0425223 0.0445289 0.0644177 -0.0416351 -0.0226042 -0.0434427 0.0740413 0.0234107 0.0234721 -0.0268038 0.0332842 0.0021409 0.0471458 0.00561216 0.0409115 0.0610202 -0.020607 0.05156 0.0332216 0.00818466 0.0249941 0.135066 0.018941
internal_weight=7667.18 6554.4 1112.78 2428.45 831.66 530.388 278.267 1596.79 1547.6 4125.95 582.389 241.003 575.283 10.0653 373.338 414.111 234.238 553.393 119.973 145.901 81.7421 433.42 37.2642 49.1928 1133.49 260.726 227.437 136.482 9.26654 127.215
internal_count=27847 10266 17581 7371 4000 4127 2697 3371 2988 2895 13454 2473 13436 117 2219 1326 2452 1303 418 491 551 885 224 383 1662 490 1728 796 104 692
cat_boundaries=0 1 2 3
cat_threshold=3 9 8
is_linear=0
shrinkage=0.05


Tree=22
num_leaves=31
num_cat=2
split_feature=0 37 5 0 20 0 16 39 28 18 3 8 17 31 17 13 21 12 1 32 39 0 12 18 35 17 25 36 29 20
split_gain=1651.73 498.138 175.983 153.631 128.021 110.391 80.7572 71.0394 95.4778 69.4416 68.2191 62.5868 58.5737 56.593 56.2562 55.787 53.1828 60.8361 51.0829 50.1206 49.7638 47.1263 47.0887 47.2311 45.2444 44.3981 42.7658 42.6429 49.2109 42.3527
threshold=530.50000000000011 1.0000000180025095e-35 4.9500000000000011 1661.5000000000002 266.50000000000006 79.500000000000014 30.950000000000003 0 23.063333333333336 88.350000000000009 8.7500000000000018 518.50000000000011 13.250000000000002 -25.499999999999996 11.15 24.550000000000004 305.85098259027023 27.750000000000004 18.950000000000003 -1.5499999999999996 1 436.50000000000006 3.9500000000000006 39.850000000000001 0.039769539193789977 6.9500000000000011 20.041666666666675 -0.80926783187727869 23.550000000000004 935.50000000000011
decision_type=10 2 8 10 10 10 10 1 8 10 8 10 8 8 10 8 8 10 10 10 1 10 8 10 2 8 10 2 10 10
left_child=1 4 5 16 9 11 22 -4 20 -1 21 18 -11 -10 15 -15 17 27 -3 -17 26 -7 -6 -24 -16 -13 -9 -2 -29 -8
right_child=3 2 7 -5 6 10 29 8 13 12 -12 25 -14 14 24 19 -18 -19 -20 -21 -22 -23 23 -25 -26 -27 -28 28 -30 -31
leaf_value=-0.044997960023271139 0.049900821992874704 -0.052466599775523065 0.042147700098937473 0.065029493817680445 0.15134172210633301 0.010211087304700788 0.092797017804047865 -0.056625050323046038 0.05418727602826099 0.21905743177923248 0.043259664349559572 0.099489124260504005 -0.052559664187966607 -0.064364790782617393 -0.043792069437955362 0.012379718010723975 0.052267271456162737 -0.05675402152356665 -0.0099938155523114375 0.090811623530634877 -0.041837836170655104 -0.063358812213053367 -0.031248019335343925 0.065369093627635558 0.085552567237658805 -0.028196274011602074 0.044919974827766655 0.036729525279431678 -0.013422329912412035 -0.028087907433114925
leaf_weight=455.08171450719237 247.21830417215824 105.21861437708139 822.54080604016781 3369.687072917819 4.2318965643644324 199.36719979345798 34.54979519546032 13.721805889159439 146.08966569975019 4.6314879506826374 184.25522436574101 18.492630016058687 3.4734072051942357 12.299580741673706 52.269363641738892 42.623053189367056 1030.9449231177568 18.501381188631058 216.37798499688506 39.012779407203197 77.397849392145872 24.435059927403927 96.558284815400839 14.555935826152561 7.7653983905911437 10.774733472615479 42.429467383772135 142.63271312788129 74.441919602453709 9.1684101149439794
leaf_count=10902 314 2511 2396 2232 30 822 113 195 325 4 463 61 79 105 286 378 1159 62 2278 66 949 120 1032 49 11 66 149 319 222 51
internal_value=0.0418657 0.0099804 0.0220558 0.0590855 -0.029124 0.00304577 0.00957671 0.033541 0.0158761 -0.0424143 0.0207284 -0.0175193 0.102654 0.0318949 0.0107435 0.034905 0.0458538 0.0321587 -0.0238899 0.0498614 -0.0189264 0.00217862 -0.0123566 -0.0185912 -0.0270616 0.0524819 0.0170659 0.0357017 0.0195308 0.0674455
internal_weight=7520.75 2637.32 2015.07 4883.43 622.251 758.921 159.064 1256.15 433.609 463.187 408.057 350.864 8.1049 300.06 153.97 93.9354 1513.74 482.794 321.597 81.6358 133.549 223.802 115.346 111.114 60.0348 29.2674 56.1513 464.293 217.075 43.7182
internal_count=27749 23441 11181 4308 12260 6321 1275 4860 2464 10985 1405 4916 83 1171 846 549 2076 917 4789 444 1293 942 1111 1081 297 127 344 855 541 164
cat_boundaries=0 1 2
cat_threshold=3 4
is_linear=0
shrinkage=0.05


Tree=23
num_leaves=31
num_cat=2
split_feature=0 11 0 22 4 40 27 8 35 25 18 29 36 21 0 5 13 9 14 21 36 15 4 39 13 5 27 17 18 31
split_gain=1546.81 442.501 362.495 130.26 83.2959 75.0806 63.1962 60.5135 67.8213 64.4465 60.5199 71.5185 60.3909 91.3043 62.2691 60.2994 59.9921 54.7524 53.0695 49.6664 46.529 43.2308 40.6325 38.5157 132.96 66.3854 59.6292 50.9729 60.468 43.6933
threshold=245.50000000000003 18.150000000000002 1398.5000000000002 480.30000000000001 2.1500000000000008 0 0.89628864398338104 1051.0000000000002 0.50557357885840837 22.533333333333342 21.750000000000004 18.650000000000002 -0.67168186667784702 411.82196568775436 308.50000000000006 5.5500000000000007 22.150000000000002 1375.5000000000002 19.550000000000004 519.91045547132455 -0.9575230291762723 14.050000000000002 3.3500000000000001 1 2.8500000000000001 4.0500000000000007 1.7214335111567216 20.850000000000005 13.350000000000003 -538.49999999999989
decision_type=8 10 10 10 10 1 8 8 2 10 10 10 2 10 8 10 10 10 8 10 2 10 10 1 8 8 8 10 10 8
left_child=1 3 5 23 7 12 18 8 9 15 11 -10 20 14 21 -3 -11 -18 22 -5 -2 -14 -6 24 -1 -26 27 28 -27 -28
right_child=2 4 -4 19 6 -7 -8 -9 10 16 -12 -13 13 -15 -16 -17 17 -19 -20 -21 -22 -23 -24 -25 25 26 29 -29 -30 -31
leaf_value=0.40140781146035948 0.018216162875720674 -0.030795645893990899 0.063104684745832626 0.056908055879607712 -0.0009288115814265731 0.048375100279435007 -0.045458331613065943 0.049083625780347813 0.21992677224383825 0.06612639908239093 -0.0045580597118456473 0.061440702306586908 0.071415237736611972 0.034607084846625391 -0.01532550139595068 0.024052969862506837 0.020099950471601347 -0.067444783495833632 -0.01285854157823286 -0.026859663515760974 0.047593078763296527 -0.061934570916851686 0.14597915395548719 -0.043431178114455932 -0.052779309361470676 0.047488113954413221 0.21887008308346798 -0.054045792162632403 0.2172408255137083 -0.053953764957724408
leaf_weight=1.9399594292044628 184.93707381188869 133.39709578827024 3438.0734772235155 54.015887212008238 7.6340596340596703 867.7270660251379 78.584188997745514 210.6601973362267 7.8767844513058654 69.49517834559083 31.82878740131855 73.922215208411217 37.177336685359478 353.68379974737763 217.87426212802529 80.258088830858469 291.0128182657063 19.027859337627888 34.520306341350079 26.315640822052956 497.06346539780498 7.2656196877360335 12.274769581854342 531.7444444000721 58.555560849606991 15.255115743726497 1.5742918252944944 6.3429490178823462 7.9956606402993193 21.642111044377092
leaf_count=24 422 1401 2362 300 85 1234 891 384 43 192 213 260 158 613 1224 531 1224 80 354 183 750 60 52 12478 1412 166 3 132 56 448
internal_value=0.0401251 -0.000538495 0.0530116 -0.030574 0.0202015 0.0369889 -0.0167759 0.0255623 0.0185521 0.0117734 0.0539399 0.076702 0.0293772 0.0180291 -0.004323 -0.0101921 0.0241386 0.0147271 0.0246355 0.0294668 0.039627 0.049615 0.0896472 -0.0380512 -0.00824216 -0.0161182 0.0245313 0.0715899 0.105864 -0.0354537
internal_weight=7379.68 1775.87 5603.8 725.382 1050.49 2165.73 133.013 917.479 706.819 593.191 113.628 81.799 1298 616.001 262.317 213.655 379.536 310.041 54.4291 80.3315 682.001 44.443 19.9088 645.05 113.306 111.366 52.8101 29.5937 23.2508 23.2164
internal_count=27735 20912 6823 15202 5710 4461 1382 4328 3944 3428 516 303 3227 2055 1442 1932 1496 1304 491 483 1172 218 137 14719 2241 2217 805 354 222 451
cat_boundaries=0 1 2
cat_threshold=2 1
is_linear=0
shrinkage=0.05


Tree=24
num_leaves=31
num_cat=4
split_feature=0 25 7 0 40 36 36 36 31 38 40 6 8 6 31 16 39 39 8 36 2 12 6 30 36 6 1 27 14 10
split_gain=1474.53 412.898 204.401 192.331 93.8675 81.1518 76.6487 73.7882 64.8629 64.0256 54.3726 51.9862 50.142 49.7429 47.8562 46.6118 44.8482 86.9369 40.2845 77.1047 52.3164 47.4013 57.932 38.2662 37.6309 35.6015 35.5209 34.422 32.6153 65.1165
threshold=402.50000000000006 18.841666666666672 160.50000000000003 1971.0000000000002 0 -0.21022037796396451 -0.9575230291762723 -0.99938741687870725 35.500000000000007 6.5000000000000009 1 1.4500000000000002 110.50000000000001 3.2500000000000004 -238.49999999999997 16.050000000000004 2 3 1114.0000000000002 -0.056951011027366626 8.3500000000000032 28.150000000000002 11.850000000000003 1.9511535049811406 0.029024409397335523 6.5500000000000007 24.750000000000004 0.84852813742385769 17.050000000000004 2271.0000000000005
decision_type=10 10 10 10 1 2 2 2 10 10 1 8 10 8 8 10 1 1 8 2 10 10 10 10 2 8 10 8 10 10
left_child=1 2 8 10 5 6 7 -3 -1 23 18 -10 -7 14 -11 -9 -6 -18 19 21 -21 -2 -23 -8 27 -17 -27 -13 -4 -30
right_child=3 4 28 -5 16 12 9 15 11 13 -12 24 -14 -15 -16 25 17 -19 -20 20 -22 22 -24 -25 -26 26 -28 -29 29 -31
leaf_value=-0.039440600052670881 0.038086346525925019 0.053204189185551046 0.034392371511014784 0.062361803013887974 0.04656434185258148 -0.055797906471354825 -0.069129575496378701 -0.053705776718398136 0.19378471573526643 0.051074997609424612 0.052409428422003516 -0.064636546825857163 0.0020654123989961195 0.039705058037926323 -0.047374811665786561 0.095945100987068155 0.03260471735959071 -0.048227853132923437 0.049294281388654548 -0.029764807259039738 0.054241679358853483 0.03238502142554546 -0.1002752575525004 0.021399738668826777 -0.054856486326661062 -0.067610861509667927 0.042222737705601532 0.023722719455120875 -0.051060006738588237 0.097472450223759846
leaf_weight=592.97968012467027 694.5870563685894 33.702841762453318 161.56861904636025 2958.881355702877 425.96939482539892 60.294468484818935 25.133669130504131 76.149978753179312 3.387040350586175 19.421700000762939 799.82547555118799 12.869891326874493 98.773239336907864 431.60506545007229 33.871206387877464 9.7950888127088529 119.91075646877289 35.558926112949848 371.21225266158581 81.033014439046383 24.029025964438915 19.917414322495461 14.024114415049551 21.795255236327648 28.57181291654706 15.106028664857151 14.358058542013167 76.778189871460199 30.994252689182758 9.6844254620373231
leaf_count=14498 1142 134 853 2040 691 942 192 652 14 49 827 122 661 1498 363 28 269 340 421 409 42 30 60 98 479 123 47 407 304 17
internal_value=0.0388387 0.00610248 -0.0200591 0.0542605 0.0229767 0.0122868 0.0197981 -0.0118828 -0.0326188 0.0286807 0.0423029 0.000645765 -0.0198676 0.0340777 -0.0114964 -0.0308901 0.0384204 0.0123194 0.0355935 0.0294923 -0.0105515 0.035267 -0.0224282 -0.0270849 -0.00488773 0.0133649 -0.0140882 0.0110379 0.0243174 -0.0156987
internal_weight=7301.79 2338.28 916.834 4963.51 1421.45 840.007 680.939 149.112 714.587 531.827 2004.63 121.607 159.068 484.898 53.2929 115.409 581.439 155.47 1204.8 833.591 105.062 728.529 33.9415 46.9289 118.22 39.2592 29.4641 89.6481 202.247 40.6787
internal_count=27752 22781 16694 4971 6087 4787 3184 984 15520 2200 2931 1022 1603 1910 412 850 1300 609 2104 1683 451 1232 90 290 1008 198 170 529 1174 321
cat_boundaries=0 1 2 3 4
cat_threshold=2 2 3 4
is_linear=0
shrinkage=0.05


Tree=25
num_leaves=31
num_cat=3
split_feature=0 11 0 23 40 39 31 35 18 4 25 14 39 17 1 34 14 8 36 21 12 23 5 15 29 25 17 6 6 36
split_gain=1416.28 333.686 323.548 101.642 80.4436 64.8469 65.0957 60.9997 59.3493 56.8129 56.3527 61.8113 47.2504 58.3125 49.2712 46.0885 53.1616 44.3938 44.3175 93.9784 52.3298 52.8773 58.3403 44.1281 42.619 42.4507 42.418 48.4053 54.463 39.2687
threshold=245.50000000000003 18.250000000000004 1543.0000000000002 231.50000000000003 0 1 -19457.999999999996 0.46039464932087154 104.85000000000001 0.65000000000000002 22.816666666666674 28.150000000000002 2 54.350000000000001 25.550000000000004 19.500000000000004 9.1500000000000004 4129.0000000000009 -0.77243990499604276 95.844492005370242 3.9500000000000006 1104.5000000000002 24.850000000000005 3.0500000000000003 25.550000000000004 16.500000000000011 16.050000000000004 6.9500000000000011 8.9500000000000011 -0.99938741687870725
decision_type=8 10 10 10 1 1 10 2 10 10 10 10 1 8 10 2 8 10 2 8 8 10 10 8 10 10 8 10 10 2
left_child=1 3 5 8 7 15 23 10 -1 -8 25 -12 -6 17 -15 16 -2 -14 19 -5 -20 22 -22 -7 29 -3 27 -9 -29 -11
right_child=2 4 -4 18 12 6 9 26 -10 24 11 -13 13 14 -16 -17 -18 -19 20 -21 21 -23 -24 -25 -26 -27 -28 28 -30 -31
leaf_value=-0.04345712561315012 0.034045861281856014 0.13271921843033771 0.060410039003934726 0.22798105583647932 0.042889154943808239 0.084125854082450754 0.046535880894112043 -0.022108119857120828 0.09409134741355285 0.069407099734749608 0.019360072836703258 -0.070447440735376052 -0.055311043314615282 -0.014012989541043717 0.075791924151494924 0.042270762852580218 -0.051459506263345604 0.086666839106682381 0.12043983541168989 0.015010790802971231 -0.049479021420786092 0.01828501137759584 0.13938554278654763 -0.06142824391078832 0.025973814333915591 -0.022126870228621726 -0.030776643572576819 0.21669337502624236 0.068849173523814797 -0.023297499842333494
leaf_weight=484.14198381081223 50.305552069097757 4.512117486447095 3128.8570240586996 6.1671558097004882 298.21448822692037 6.0890136398375025 182.17094374448061 10.329352017492054 7.9714297056198111 12.871392846107481 284.98804052919149 20.540318261831999 43.231407757848501 27.651626173406839 34.118617855012417 1698.7427135109901 28.463815357536077 6.3093444108963004 7.293188799172639 32.361698523163795 88.371193047612906 64.255286030471325 4.2872822657227507 35.957328226417303 184.61169236525893 232.25152473151684 12.215840838849543 7.9064879193902007 29.363709297031164 101.52113645151258
leaf_count=12927 229 35 2254 43 595 52 275 124 58 17 1291 126 381 154 34 2502 209 3 53 171 1651 434 14 428 383 2573 121 32 115 494
internal_value=0.037456 -0.00227677 0.0499437 -0.0289548 0.0160473 0.03571 0.0189493 0.00441922 -0.0412291 0.0245248 -0.000866283 0.0133224 0.0331436 0.0029187 0.0355905 0.0403103 0.00314795 -0.0372292 0.000839188 0.0491001 -0.0104845 -0.0165698 -0.0407403 -0.0403496 0.0111144 -0.0191759 0.0523381 0.0736685 0.100213 -0.0128664
internal_weight=7136.07 1706.48 5429.59 694.849 1011.63 2300.73 523.222 602.107 492.113 481.175 542.292 305.528 409.525 111.311 61.7702 1777.51 78.7694 49.5408 202.736 38.5289 164.207 156.914 92.6585 42.0463 299.004 236.764 59.8154 47.5995 37.2702 114.393
internal_count=27778 20935 6843 15351 5584 4589 1649 4417 12985 1169 4025 1417 1167 572 188 2940 438 384 2366 214 2152 2099 1665 480 894 2608 392 271 147 511
cat_boundaries=0 1 2 3
cat_threshold=2 3 6
is_linear=0
shrinkage=0.05


Tree=26
num_leaves=31
num_cat=2
split_feature=0 37 39 19 25 40 24 0 3 3 38 11 13 18 15 36 35 27 36 36 16 15 21 3 3 18 36 35 13 16
split_gain=1207.8 434.013 210.316 162.517 146.793 96.4935 86.5959 73.717 55.912 53.0417 52.935 53.0978 69.5724 52.0867 48.3801 46.4731 46.8148 46.5042 46.25 51.0214 48.4185 46.4419 50.4436 45.6089 44.0523 42.2019 41.7654 43.6755 55.4977 40.5776
threshold=903.50000000000011 1.0000000180025095e-35 0 218.50000000000003 22.866666666666671 1 16.883670090716624 2989.0000000000005 9.2500000000000018 8.4500000000000011 6.5000000000000009 25.950000000000003 22.050000000000004 88.350000000000009 12.850000000000003 0.19969739736768838 0.73283908552571653 0.6658328118479413 -0.94137724084408114 -0.96687281075841669 21.950000000000003 2.1500000000000008 23.094010767585111 10.65 7.8500000000000005 88.350000000000009 -0.98521978256641018 -0.97509794945709805 21.850000000000005 39.45000000000001
decision_type=10 2 1 10 8 1 10 10 10 8 10 10 10 10 10 2 2 8 2 2 10 8 10 8 8 10 2 2 8 10
left_child=1 3 5 13 18 6 -3 -2 -5 26 29 12 14 -1 -12 16 -7 -18 19 20 -4 -21 -23 -17 -13 -20 -8 28 -28 -6
right_child=7 2 4 8 10 15 9 -9 -10 -11 11 24 -14 -15 -16 23 17 -19 25 21 -22 22 -24 -25 -26 -27 27 -29 -30 -31
leaf_value=-0.042126485225994222 0.047315040187403415 -0.017051384768681933 -0.036451527908745014 -0.043849161486825244 -0.045462863790910975 0.052156278469865626 -0.031243145815706443 0.061718326430055273 0.025688224512018888 0.0442384188613104 0.016679596525269031 0.060034089236965162 -0.0063599866269394211 0.077685145361790553 0.087972351314573469 -0.05144301657094702 0.12849218039891239 -0.061318044183321291 -0.038696014693920977 0.20076223692012918 0.090394954609253231 -0.054834564165205872 0.090527441256547755 0.041961101172635004 0.013202286198733267 0.081198840812186701 0.048889049152690822 0.028426383175102599 -0.053517573247436223 0.036625524666261004
leaf_weight=426.90164443105459 1458.8059981614351 117.62889685854316 53.833190999925137 34.68357976898551 51.050505079329014 713.93858842551708 38.828513737767935 2271.7461521923542 173.57499608397484 333.76125090569258 60.279510445892811 139.40025617554784 199.12784004211426 9.2682230621576291 39.318458650261164 22.992229364812374 4.0075820982456234 16.566506277769804 226.76674575358629 4.939273543655875 8.7451692000031453 9.8823382444679755 15.068436555564402 30.283465802669525 78.486205633729696 7.5850728750228873 20.310168463736773 412.88530832156539 37.951322361826897 21.350461684167385
leaf_count=11302 1459 1791 663 318 312 957 164 1574 786 937 408 228 937 89 58 109 14 184 3305 39 51 157 52 63 230 19 82 1161 218 37
internal_value=0.0365799 0.0145915 0.0234955 -0.0222304 0.00383108 0.0335777 0.0231389 0.056086 0.0141074 0.028742 0.0187839 0.0243953 0.0107052 -0.0395806 0.044824 0.0467428 0.0500134 -0.0243453 -0.0230005 0.00694345 -0.018725 0.0606835 0.0329534 0.00165062 0.0431645 -0.0348155 0.0186001 0.0227078 -0.0178183 -0.0212557
internal_weight=7039.97 3309.42 2664.99 644.428 915.833 1749.15 961.365 3730.55 208.259 843.737 589.013 516.612 298.726 436.17 99.598 787.788 734.513 20.5741 326.82 92.4684 62.5784 29.89 24.9508 53.2757 217.886 234.352 509.975 471.147 58.2615 72.401
internal_count=27704 24671 12176 12495 6496 5680 4353 3033 1104 2562 2210 1861 1403 11391 466 1327 1155 198 4286 962 714 248 209 172 458 3324 1625 1461 300 349
cat_boundaries=0 1 2
cat_threshold=3 2
is_linear=0
shrinkage=0.05


Tree=27
num_leaves=31
num_cat=1
split_feature=0 37 0 4 18 7 16 16 39 3 4 4 14 15 21 7 34 33 0 11 18 6 13 26 6 36 18 1 12 4
split_gain=1211.9 375.773 158.033 139.179 87.8412 84.0037 61.9609 58.7431 55.5011 64.7984 59.4121 54.1072 77.4336 49.9069 48.4292 46.7265 52.3667 46.4772 46.4242 45.4558 49.7205 48.7237 43.2513 53.7075 54.5598 42.6559 52.5002 48.9609 48.0854 43.7486
threshold=524.50000000000011 1.0000000180025095e-35 2021.0000000000002 2.1500000000000008 39.850000000000001 20.500000000000004 27.050000000000004 33.95000000000001 0 6.4500000000000011 1.4500000000000002 0.45000000000000007 4.9500000000000011 10.750000000000002 1514.1651357966691 960.50000000000011 36.500000000000007 8.5000000000000018 93.500000000000014 22.550000000000004 11.750000000000002 15.450000000000001 22.150000000000002 24.650000000000002 19.050000000000004 -0.91595872546125101 21.750000000000004 23.050000000000004 20.050000000000004 0.75000000000000011
decision_type=10 2 10 10 10 8 10 8 1 8 10 8 8 8 8 8 2 2 10 8 10 10 10 10 10 2 10 10 10 8
left_child=1 4 15 5 6 8 11 -6 9 13 17 12 -1 -3 22 16 -2 25 -5 -11 21 -21 -7 24 -24 27 29 -10 -28 -27
right_child=2 3 -4 18 7 14 -8 -9 10 19 -12 -13 -14 -15 -16 -17 -18 -19 -20 20 -22 -23 23 -25 -26 26 28 -29 -30 -31
leaf_value=0.34188756798207087 0.038787963581336043 0.18042238609164887 0.058732746380632916 -0.039906395299383876 0.076720914784040972 0.034770505437722719 0.010985606510650503 -0.038797184700994747 -0.048793277356686551 -0.054440321387790348 -0.023113502447417212 -0.044223124295965657 -0.052704080358144403 -0.0095287817805472727 0.045611140654942726 0.048245575211307887 0.011836583253855705 -0.019606159372134158 0.0046078189610516398 -0.022087186839139489 -0.051330539439791739 0.06480681788254268 -0.046657967960021404 0.022097003629183383 0.029096124301989618 -0.031281159489028085 -0.061640779170227304 0.03408311028614143 0.045367139400824007 0.08273755800868457
leaf_weight=2.2152530718594781 687.24562707543373 7.0813004188239548 2670.419509857893 121.5017929058522 30.756158284842968 433.34037247672677 62.490069989115 17.137193853035569 25.795536372810602 73.902458410710096 69.960183197632432 425.55218497850001 2.8336692061275244 6.7579870559275159 346.12563146278262 790.90919229388237 244.30140766128898 42.592058785259724 113.08644068986177 30.956313755363226 34.228989697992802 33.68912211060524 65.400366859510541 342.09050633385777 37.338264048099518 9.2270287163555604 15.915051413699983 57.644415590912104 30.845696114003658 95.363603372126818
leaf_count=16 964 36 1994 2345 189 1613 747 297 339 1396 867 10930 73 47 539 819 577 397 463 304 267 100 418 909 108 80 195 150 71 508
internal_value=0.0352325 0.0076949 0.0511163 0.0177272 -0.0292614 0.0225537 -0.0355406 0.0353862 0.00600486 -0.0156014 0.0175569 -0.0422926 0.120426 0.0876656 0.0297712 0.0393081 0.0317199 0.0284475 -0.0184477 -0.024776 -0.00260376 0.0231965 0.023528 0.0125759 -0.0191267 0.0371646 0.0529885 0.0084618 0.00894692 0.0726788
internal_weight=6926.7 2533.83 4392.88 1992.84 540.985 1758.25 493.091 47.8934 533.96 186.616 347.344 430.601 5.04892 13.8393 1224.3 1722.46 931.547 277.383 234.588 172.777 98.8744 64.6454 878.17 444.829 102.739 234.791 151.351 83.44 46.7607 104.591
internal_count=27758 23404 4354 11152 12252 8344 11766 486 4757 2150 2607 11019 89 83 3587 2360 1541 1740 2808 2067 671 404 3048 1435 526 1343 854 489 266 588
cat_boundaries=0 1
cat_threshold=8
is_linear=0
shrinkage=0.05


Tree=28
num_leaves=31
num_cat=0
split_feature=24 36 7 36 31 7 7 1 4 31 3 29 32 36 22 3 30 30 6 16 15 36 13 17 21 17 13 12 31 36
split_gain=970.767 364.026 258.107 97.1958 91.4825 81.9191 81.5379 63.0069 62.2727 52.3763 46.7268 52.9185 46.6137 42.7317 41.2301 40.7574 40.6472 47.7012 140.716 40.3696 40.321 38.1744 40.9473 38.9663 41.4262 37.3486 37.2783 41.2262 36.8946 36.6215
threshold=218.08782381157974 -0.48313741114591585 1639.5000000000002 -0.41399101439218416 1025.0000000000002 22.500000000000004 200.50000000000003 18.350000000000005 0.45000000000000007 521.50000000000011 6.5500000000000007 14.550000000000002 -0.20000000000000059 -0.93543596745397617 1099.6750000000002 10.450000000000001 1.0503967504390721 1.0986355173578348 4.8500000000000005 14.350000000000003 2.7500000000000004 -0.91595872546125101 24.350000000000005 19.150000000000002 180.75766209901548 28.050000000000004 16.050000000000004 7.6500000000000012 1105.0000000000002 0.77108682076304769
decision_type=10 2 8 2 8 10 10 8 8 10 8 8 10 2 10 8 8 8 8 8 8 2 10 10 8 10 8 10 10 2
left_child=1 4 3 9 7 8 14 10 -3 26 11 -1 -7 -6 -5 -8 -9 18 -18 -16 -19 22 23 24 -22 -23 27 -2 -10 -14
right_child=2 5 -4 6 13 12 15 16 28 -11 -12 -13 29 -15 19 -17 17 20 -20 -21 21 25 -24 -25 -26 -27 -28 -29 -30 -31
leaf_value=0.18493521638687491 0.081789497517953114 0.074622882299338861 0.055720100761825021 -0.025320389603565086 -0.0050498200299309605 -0.025224905100784567 0.016671359102524801 -0.020195227774896598 -0.047231430071486474 0.053064696593455619 -0.039400087460076255 -0.020216045177884598 0.014902233051641007 0.054210289792197767 0.055022275650518218 0.040680988033167727 0.34251332237663984 -0.030181830925307254 -0.012777113580893895 -0.024246614929326629 -0.012927065225502909 0.03442572462843578 -0.061888085904694023 0.040041970732082495 0.047450124927655643 -0.017948581338665195 0.034955571629700338 -0.068262990126945686 0.049008479998064458 0.13558536347438307
